<?xml version="1.0" encoding="UTF-8" standalone="yes"?>
<PMML xmlns="http://www.dmg.org/PMML-4_3" xmlns:data="http://jpmml.org/jpmml-model/InlineTable" version="4.3">
	<Header>
		<Application name="JPMML-SkLearn" version="1.5.12"/>
		<Timestamp>2019-09-09T09:09:09Z</Timestamp>
	</Header>
	<MiningBuildTask>
		<Extension>PMMLPipeline(steps=[('mapper', DataFrameMapper(default=False, df_out=False,
        features=[(['EXT_SOURCE_3', 'EXT_SOURCE_2', 'EXT_SOURCE_1', 'AMT_CREDIT', 'AMT_ANNUITY', 'DAYS_ID_PUBLISH', 'DAYS_BIRTH', 'DAYS_REGISTRATION', 'AMT_GOODS_PRICE', 'DAYS_EMPLOYED', 'DAYS_LAST_PHONE_CHANGE', 'SK_ID_CURR', 'OWN_CAR_AGE', 'REGION_POPULATION_RELATIVE', 'AMT_INCOME_TOTAL', 'HOUR_APPR_PROCE...       dtype=&lt;class 'numpy.float64'&gt;, handle_unknown='ignore',
       n_values=None, sparse=True)])],
        input_df=False, sparse=False)),
       ('model', LGBMClassifier(boosting_type='gbdt', class_weight=None,
        colsample_bytree=0.4493803564807905, importance_type='split',
        learning_rate=0.01683407069817106, max_depth=-1,
        min_child_samples=290, min_child_weight=0.007996048048952658,
        min_split_gain=0.3693213914849033, n_estimators=480, n_jobs=-1,
        num_leaves=20, objective=None, random_state=1234,
        reg_alpha=0.4027174335737804, reg_lambda=0.38874508392746726,
        silent=True, subsample=0.8892137970901192,
        subsample_for_bin=200000, subsample_freq=5))])</Extension>
	</MiningBuildTask>
	<DataDictionary>
		<DataField name="y" optype="categorical" dataType="integer">
			<Value value="0"/>
			<Value value="1"/>
		</DataField>
		<DataField name="EXT_SOURCE_3" optype="continuous" dataType="double"/>
		<DataField name="EXT_SOURCE_2" optype="continuous" dataType="double"/>
		<DataField name="EXT_SOURCE_1" optype="continuous" dataType="double"/>
		<DataField name="AMT_CREDIT" optype="continuous" dataType="double"/>
		<DataField name="AMT_ANNUITY" optype="continuous" dataType="double"/>
		<DataField name="DAYS_ID_PUBLISH" optype="continuous" dataType="double"/>
		<DataField name="DAYS_BIRTH" optype="continuous" dataType="double"/>
		<DataField name="DAYS_REGISTRATION" optype="continuous" dataType="double"/>
		<DataField name="AMT_GOODS_PRICE" optype="continuous" dataType="double"/>
		<DataField name="DAYS_EMPLOYED" optype="continuous" dataType="double"/>
		<DataField name="DAYS_LAST_PHONE_CHANGE" optype="continuous" dataType="double"/>
		<DataField name="SK_ID_CURR" optype="continuous" dataType="double"/>
		<DataField name="OWN_CAR_AGE" optype="continuous" dataType="double"/>
		<DataField name="REGION_POPULATION_RELATIVE" optype="continuous" dataType="double"/>
		<DataField name="AMT_INCOME_TOTAL" optype="continuous" dataType="double"/>
		<DataField name="HOUR_APPR_PROCESS_START" optype="continuous" dataType="double"/>
		<DataField name="AMT_REQ_CREDIT_BUREAU_YEAR" optype="continuous" dataType="double"/>
		<DataField name="TOTALAREA_MODE" optype="continuous" dataType="double"/>
		<DataField name="NONLIVINGAREA_AVG" optype="continuous" dataType="double"/>
		<DataField name="YEARS_BEGINEXPLUATATION_AVG" optype="continuous" dataType="double"/>
		<DataField name="LANDAREA_AVG" optype="continuous" dataType="double"/>
		<DataField name="DEF_60_CNT_SOCIAL_CIRCLE" optype="continuous" dataType="double"/>
		<DataField name="FLAG_DOCUMENT_3" optype="continuous" dataType="double"/>
		<DataField name="LANDAREA_MODE" optype="continuous" dataType="double"/>
		<DataField name="BASEMENTAREA_AVG" optype="continuous" dataType="double"/>
		<DataField name="APARTMENTS_AVG" optype="continuous" dataType="double"/>
		<DataField name="REGION_RATING_CLIENT_W_CITY" optype="continuous" dataType="double"/>
		<DataField name="BASEMENTAREA_MODE" optype="continuous" dataType="double"/>
		<DataField name="LIVINGAREA_AVG" optype="continuous" dataType="double"/>
		<DataField name="NONLIVINGAREA_MODE" optype="continuous" dataType="double"/>
		<DataField name="COMMONAREA_AVG" optype="continuous" dataType="double"/>
		<DataField name="AMT_REQ_CREDIT_BUREAU_QRT" optype="continuous" dataType="double"/>
		<DataField name="OBS_30_CNT_SOCIAL_CIRCLE" optype="continuous" dataType="double"/>
		<DataField name="LIVINGAPARTMENTS_AVG" optype="continuous" dataType="double"/>
		<DataField name="YEARS_BEGINEXPLUATATION_MODE" optype="continuous" dataType="double"/>
		<DataField name="YEARS_BUILD_AVG" optype="continuous" dataType="double"/>
		<DataField name="APARTMENTS_MODE" optype="continuous" dataType="double"/>
		<DataField name="LIVINGAREA_MODE" optype="continuous" dataType="double"/>
		<DataField name="CNT_FAM_MEMBERS" optype="continuous" dataType="double"/>
		<DataField name="COMMONAREA_MODE" optype="continuous" dataType="double"/>
		<DataField name="YEARS_BEGINEXPLUATATION_MEDI" optype="continuous" dataType="double"/>
		<DataField name="ENTRANCES_AVG" optype="continuous" dataType="double"/>
		<DataField name="LIVINGAPARTMENTS_MODE" optype="continuous" dataType="double"/>
		<DataField name="BASEMENTAREA_MEDI" optype="continuous" dataType="double"/>
		<DataField name="ORGANIZATION_TYPE" optype="categorical" dataType="string">
			<Value value="Advertising"/>
			<Value value="Agriculture"/>
			<Value value="Bank"/>
			<Value value="Business Entity Type 1"/>
			<Value value="Business Entity Type 2"/>
			<Value value="Business Entity Type 3"/>
			<Value value="Cleaning"/>
			<Value value="Construction"/>
			<Value value="Culture"/>
			<Value value="Electricity"/>
			<Value value="Emergency"/>
			<Value value="Government"/>
			<Value value="Hotel"/>
			<Value value="Housing"/>
			<Value value="Industry: type 1"/>
			<Value value="Industry: type 10"/>
			<Value value="Industry: type 11"/>
			<Value value="Industry: type 12"/>
			<Value value="Industry: type 13"/>
			<Value value="Industry: type 2"/>
			<Value value="Industry: type 3"/>
			<Value value="Industry: type 4"/>
			<Value value="Industry: type 5"/>
			<Value value="Industry: type 6"/>
			<Value value="Industry: type 7"/>
			<Value value="Industry: type 8"/>
			<Value value="Industry: type 9"/>
			<Value value="Insurance"/>
			<Value value="Kindergarten"/>
			<Value value="Legal Services"/>
			<Value value="Medicine"/>
			<Value value="Military"/>
			<Value value="Mobile"/>
			<Value value="Other"/>
			<Value value="Police"/>
			<Value value="Postal"/>
			<Value value="Realtor"/>
			<Value value="Religion"/>
			<Value value="Restaurant"/>
			<Value value="School"/>
			<Value value="Security"/>
			<Value value="Security Ministries"/>
			<Value value="Self-employed"/>
			<Value value="Services"/>
			<Value value="Telecom"/>
			<Value value="Trade: type 1"/>
			<Value value="Trade: type 2"/>
			<Value value="Trade: type 3"/>
			<Value value="Trade: type 4"/>
			<Value value="Trade: type 5"/>
			<Value value="Trade: type 6"/>
			<Value value="Trade: type 7"/>
			<Value value="Transport: type 1"/>
			<Value value="Transport: type 2"/>
			<Value value="Transport: type 3"/>
			<Value value="Transport: type 4"/>
			<Value value="University"/>
			<Value value="XNA"/>
		</DataField>
		<DataField name="OCCUPATION_TYPE" optype="categorical" dataType="string">
			<Value value="Accountants"/>
			<Value value="Blank"/>
			<Value value="Cleaning staff"/>
			<Value value="Cooking staff"/>
			<Value value="Core staff"/>
			<Value value="Drivers"/>
			<Value value="HR staff"/>
			<Value value="High skill tech staff"/>
			<Value value="IT staff"/>
			<Value value="Laborers"/>
			<Value value="Low-skill Laborers"/>
			<Value value="Managers"/>
			<Value value="Medicine staff"/>
			<Value value="Private service staff"/>
			<Value value="Realty agents"/>
			<Value value="Sales staff"/>
			<Value value="Secretaries"/>
			<Value value="Security staff"/>
			<Value value="Waiters/barmen staff"/>
		</DataField>
		<DataField name="CODE_GENDER" optype="categorical" dataType="string">
			<Value value="F"/>
			<Value value="M"/>
		</DataField>
		<DataField name="NAME_EDUCATION_TYPE" optype="categorical" dataType="string">
			<Value value="Academic degree"/>
			<Value value="Higher education"/>
			<Value value="Incomplete higher"/>
			<Value value="Lower secondary"/>
			<Value value="Secondary / secondary special"/>
		</DataField>
		<DataField name="NAME_INCOME_TYPE" optype="categorical" dataType="string">
			<Value value="Commercial associate"/>
			<Value value="Maternity leave"/>
			<Value value="Pensioner"/>
			<Value value="State servant"/>
			<Value value="Student"/>
			<Value value="Working"/>
		</DataField>
		<DataField name="NAME_FAMILY_STATUS" optype="categorical" dataType="string">
			<Value value="Civil marriage"/>
			<Value value="Married"/>
			<Value value="Separated"/>
			<Value value="Single / not married"/>
			<Value value="Widow"/>
		</DataField>
	</DataDictionary>
	<TransformationDictionary>
		<DerivedField name="ORGANIZATION_TYPE=Business Entity Type 2" optype="continuous" dataType="double">
			<NormDiscrete field="ORGANIZATION_TYPE" value="Business Entity Type 2"/>
		</DerivedField>
		<DerivedField name="ORGANIZATION_TYPE=Business Entity Type 3" optype="continuous" dataType="double">
			<NormDiscrete field="ORGANIZATION_TYPE" value="Business Entity Type 3"/>
		</DerivedField>
		<DerivedField name="ORGANIZATION_TYPE=Construction" optype="continuous" dataType="double">
			<NormDiscrete field="ORGANIZATION_TYPE" value="Construction"/>
		</DerivedField>
		<DerivedField name="ORGANIZATION_TYPE=Government" optype="continuous" dataType="double">
			<NormDiscrete field="ORGANIZATION_TYPE" value="Government"/>
		</DerivedField>
		<DerivedField name="ORGANIZATION_TYPE=Industry: type 9" optype="continuous" dataType="double">
			<NormDiscrete field="ORGANIZATION_TYPE" value="Industry: type 9"/>
		</DerivedField>
		<DerivedField name="ORGANIZATION_TYPE=Medicine" optype="continuous" dataType="double">
			<NormDiscrete field="ORGANIZATION_TYPE" value="Medicine"/>
		</DerivedField>
		<DerivedField name="ORGANIZATION_TYPE=Military" optype="continuous" dataType="double">
			<NormDiscrete field="ORGANIZATION_TYPE" value="Military"/>
		</DerivedField>
		<DerivedField name="ORGANIZATION_TYPE=Other" optype="continuous" dataType="double">
			<NormDiscrete field="ORGANIZATION_TYPE" value="Other"/>
		</DerivedField>
		<DerivedField name="ORGANIZATION_TYPE=Security" optype="continuous" dataType="double">
			<NormDiscrete field="ORGANIZATION_TYPE" value="Security"/>
		</DerivedField>
		<DerivedField name="ORGANIZATION_TYPE=Self-employed" optype="continuous" dataType="double">
			<NormDiscrete field="ORGANIZATION_TYPE" value="Self-employed"/>
		</DerivedField>
		<DerivedField name="ORGANIZATION_TYPE=Trade: type 7" optype="continuous" dataType="double">
			<NormDiscrete field="ORGANIZATION_TYPE" value="Trade: type 7"/>
		</DerivedField>
		<DerivedField name="OCCUPATION_TYPE=Accountants" optype="continuous" dataType="double">
			<NormDiscrete field="OCCUPATION_TYPE" value="Accountants"/>
		</DerivedField>
		<DerivedField name="OCCUPATION_TYPE=Blank" optype="continuous" dataType="double">
			<NormDiscrete field="OCCUPATION_TYPE" value="Blank"/>
		</DerivedField>
		<DerivedField name="OCCUPATION_TYPE=Cooking staff" optype="continuous" dataType="double">
			<NormDiscrete field="OCCUPATION_TYPE" value="Cooking staff"/>
		</DerivedField>
		<DerivedField name="OCCUPATION_TYPE=Core staff" optype="continuous" dataType="double">
			<NormDiscrete field="OCCUPATION_TYPE" value="Core staff"/>
		</DerivedField>
		<DerivedField name="OCCUPATION_TYPE=Drivers" optype="continuous" dataType="double">
			<NormDiscrete field="OCCUPATION_TYPE" value="Drivers"/>
		</DerivedField>
		<DerivedField name="OCCUPATION_TYPE=Laborers" optype="continuous" dataType="double">
			<NormDiscrete field="OCCUPATION_TYPE" value="Laborers"/>
		</DerivedField>
		<DerivedField name="OCCUPATION_TYPE=Managers" optype="continuous" dataType="double">
			<NormDiscrete field="OCCUPATION_TYPE" value="Managers"/>
		</DerivedField>
		<DerivedField name="OCCUPATION_TYPE=Private service staff" optype="continuous" dataType="double">
			<NormDiscrete field="OCCUPATION_TYPE" value="Private service staff"/>
		</DerivedField>
		<DerivedField name="OCCUPATION_TYPE=Sales staff" optype="continuous" dataType="double">
			<NormDiscrete field="OCCUPATION_TYPE" value="Sales staff"/>
		</DerivedField>
		<DerivedField name="OCCUPATION_TYPE=Security staff" optype="continuous" dataType="double">
			<NormDiscrete field="OCCUPATION_TYPE" value="Security staff"/>
		</DerivedField>
		<DerivedField name="CODE_GENDER=F" optype="continuous" dataType="double">
			<NormDiscrete field="CODE_GENDER" value="F"/>
		</DerivedField>
		<DerivedField name="CODE_GENDER=M" optype="continuous" dataType="double">
			<NormDiscrete field="CODE_GENDER" value="M"/>
		</DerivedField>
		<DerivedField name="NAME_EDUCATION_TYPE=Higher education" optype="continuous" dataType="double">
			<NormDiscrete field="NAME_EDUCATION_TYPE" value="Higher education"/>
		</DerivedField>
		<DerivedField name="NAME_EDUCATION_TYPE=Incomplete higher" optype="continuous" dataType="double">
			<NormDiscrete field="NAME_EDUCATION_TYPE" value="Incomplete higher"/>
		</DerivedField>
		<DerivedField name="NAME_EDUCATION_TYPE=Secondary / secondary special" optype="continuous" dataType="double">
			<NormDiscrete field="NAME_EDUCATION_TYPE" value="Secondary / secondary special"/>
		</DerivedField>
		<DerivedField name="NAME_INCOME_TYPE=Commercial associate" optype="continuous" dataType="double">
			<NormDiscrete field="NAME_INCOME_TYPE" value="Commercial associate"/>
		</DerivedField>
		<DerivedField name="NAME_INCOME_TYPE=Pensioner" optype="continuous" dataType="double">
			<NormDiscrete field="NAME_INCOME_TYPE" value="Pensioner"/>
		</DerivedField>
		<DerivedField name="NAME_INCOME_TYPE=State servant" optype="continuous" dataType="double">
			<NormDiscrete field="NAME_INCOME_TYPE" value="State servant"/>
		</DerivedField>
		<DerivedField name="NAME_INCOME_TYPE=Working" optype="continuous" dataType="double">
			<NormDiscrete field="NAME_INCOME_TYPE" value="Working"/>
		</DerivedField>
		<DerivedField name="NAME_FAMILY_STATUS=Civil marriage" optype="continuous" dataType="double">
			<NormDiscrete field="NAME_FAMILY_STATUS" value="Civil marriage"/>
		</DerivedField>
		<DerivedField name="NAME_FAMILY_STATUS=Married" optype="continuous" dataType="double">
			<NormDiscrete field="NAME_FAMILY_STATUS" value="Married"/>
		</DerivedField>
		<DerivedField name="NAME_FAMILY_STATUS=Separated" optype="continuous" dataType="double">
			<NormDiscrete field="NAME_FAMILY_STATUS" value="Separated"/>
		</DerivedField>
		<DerivedField name="NAME_FAMILY_STATUS=Single / not married" optype="continuous" dataType="double">
			<NormDiscrete field="NAME_FAMILY_STATUS" value="Single / not married"/>
		</DerivedField>
		<DerivedField name="NAME_FAMILY_STATUS=Widow" optype="continuous" dataType="double">
			<NormDiscrete field="NAME_FAMILY_STATUS" value="Widow"/>
		</DerivedField>
	</TransformationDictionary>
	<MiningModel functionName="classification" algorithmName="LightGBM">
		<MiningSchema>
			<MiningField name="y" usageType="target"/>
			<MiningField name="YEARS_BEGINEXPLUATATION_MEDI" importance="80.0"/>
			<MiningField name="NAME_FAMILY_STATUS" importance="11.0" missingValueTreatment="asIs" invalidValueTreatment="asIs"/>
			<MiningField name="BASEMENTAREA_MEDI" importance="70.0"/>
			<MiningField name="REGION_RATING_CLIENT_W_CITY" importance="94.0"/>
			<MiningField name="EXT_SOURCE_2" importance="637.0"/>
			<MiningField name="BASEMENTAREA_AVG" importance="62.0"/>
			<MiningField name="APARTMENTS_MODE" importance="53.0"/>
			<MiningField name="ENTRANCES_AVG" importance="54.0"/>
			<MiningField name="AMT_CREDIT" importance="493.0"/>
			<MiningField name="EXT_SOURCE_1" importance="400.0"/>
			<MiningField name="CNT_FAM_MEMBERS" importance="65.0"/>
			<MiningField name="OCCUPATION_TYPE" importance="11.0" missingValueTreatment="asIs" invalidValueTreatment="asIs"/>
			<MiningField name="FLAG_DOCUMENT_3" importance="81.0"/>
			<MiningField name="APARTMENTS_AVG" importance="69.0"/>
			<MiningField name="OWN_CAR_AGE" importance="209.0"/>
			<MiningField name="REGION_POPULATION_RELATIVE" importance="217.0"/>
			<MiningField name="AMT_REQ_CREDIT_BUREAU_YEAR" importance="88.0"/>
			<MiningField name="YEARS_BEGINEXPLUATATION_MODE" importance="79.0"/>
			<MiningField name="CODE_GENDER" importance="57.0" missingValueTreatment="asIs" invalidValueTreatment="asIs"/>
			<MiningField name="BASEMENTAREA_MODE" importance="62.0"/>
			<MiningField name="LANDAREA_AVG" importance="49.0"/>
			<MiningField name="NAME_INCOME_TYPE" importance="60.0" missingValueTreatment="asIs" invalidValueTreatment="asIs"/>
			<MiningField name="EXT_SOURCE_3" importance="769.0"/>
			<MiningField name="LIVINGAPARTMENTS_AVG" importance="85.0"/>
			<MiningField name="HOUR_APPR_PROCESS_START" importance="148.0"/>
			<MiningField name="LIVINGAPARTMENTS_MODE" importance="53.0"/>
			<MiningField name="DEF_60_CNT_SOCIAL_CIRCLE" importance="97.0"/>
			<MiningField name="YEARS_BEGINEXPLUATATION_AVG" importance="75.0"/>
			<MiningField name="DAYS_LAST_PHONE_CHANGE" importance="363.0"/>
			<MiningField name="DAYS_ID_PUBLISH" importance="400.0"/>
			<MiningField name="COMMONAREA_MODE" importance="58.0"/>
			<MiningField name="DAYS_REGISTRATION" importance="344.0"/>
			<MiningField name="AMT_INCOME_TOTAL" importance="193.0"/>
			<MiningField name="NONLIVINGAREA_AVG" importance="99.0"/>
			<MiningField name="DAYS_BIRTH" importance="496.0"/>
			<MiningField name="LIVINGAREA_MODE" importance="64.0"/>
			<MiningField name="COMMONAREA_AVG" importance="59.0"/>
			<MiningField name="AMT_GOODS_PRICE" importance="400.0"/>
			<MiningField name="YEARS_BUILD_AVG" importance="71.0"/>
			<MiningField name="SK_ID_CURR" importance="289.0"/>
			<MiningField name="AMT_ANNUITY" importance="408.0"/>
			<MiningField name="LIVINGAREA_AVG" importance="92.0"/>
			<MiningField name="OBS_30_CNT_SOCIAL_CIRCLE" importance="94.0"/>
			<MiningField name="DAYS_EMPLOYED" importance="385.0"/>
			<MiningField name="LANDAREA_MODE" importance="69.0"/>
			<MiningField name="AMT_REQ_CREDIT_BUREAU_QRT" importance="73.0"/>
			<MiningField name="TOTALAREA_MODE" importance="80.0"/>
			<MiningField name="NONLIVINGAREA_MODE" importance="85.0"/>
			<MiningField name="ORGANIZATION_TYPE" importance="1.0" missingValueTreatment="asIs" invalidValueTreatment="asIs"/>
			<MiningField name="NAME_EDUCATION_TYPE" importance="57.0" missingValueTreatment="asIs" invalidValueTreatment="asIs"/>
		</MiningSchema>
		<ModelStats>
			<UnivariateStats field="ORGANIZATION_TYPE">
				<Counts totalFreq="43051.0" missingFreq="0.0" invalidFreq="0.0"/>
				<DiscrStats>
					<Array type="string">Advertising Agriculture Bank "Business Entity Type 1" "Business Entity Type 2" "Business Entity Type 3" Cleaning Construction Culture Electricity Emergency Government Hotel Housing "Industry: type 1" "Industry: type 10" "Industry: type 11" "Industry: type 12" "Industry: type 13" "Industry: type 2" "Industry: type 3" "Industry: type 4" "Industry: type 5" "Industry: type 6" "Industry: type 7" "Industry: type 8" "Industry: type 9" Insurance Kindergarten "Legal Services" Medicine Military Mobile Other Police Postal Realtor Religion Restaurant School Security "Security Ministries" Self-employed Services Telecom "Trade: type 1" "Trade: type 2" "Trade: type 3" "Trade: type 4" "Trade: type 5" "Trade: type 6" "Trade: type 7" "Transport: type 1" "Transport: type 2" "Transport: type 3" "Transport: type 4" University XNA</Array>
					<Array type="int">50 333 342 847 1557 9445 43 945 51 135 76 1512 139 398 144 13 370 51 2 67 449 120 101 20 180 7 452 76 985 35 1565 359 49 2369 316 301 63 20 250 1282 460 287 5381 217 83 42 276 468 11 8 87 1127 21 309 162 721 190 7682</Array>
				</DiscrStats>
			</UnivariateStats>
			<UnivariateStats field="OCCUPATION_TYPE">
				<Counts totalFreq="43051.0" missingFreq="0.0" invalidFreq="0.0"/>
				<DiscrStats>
					<Array type="string">Accountants Blank "Cleaning staff" "Cooking staff" "Core staff" Drivers "HR staff" "High skill tech staff" "IT staff" Laborers "Low-skill Laborers" Managers "Medicine staff" "Private service staff" "Realty agents" "Sales staff" Secretaries "Security staff" "Waiters/barmen staff"</Array>
					<Array type="int">1308 13459 682 831 3829 2620 89 1566 61 7650 297 2998 1165 377 97 4649 195 989 189</Array>
				</DiscrStats>
			</UnivariateStats>
			<UnivariateStats field="CODE_GENDER">
				<Counts totalFreq="43051.0" missingFreq="0.0" invalidFreq="0.0"/>
				<DiscrStats>
					<Array type="string">F M</Array>
					<Array type="int">28299 14752</Array>
				</DiscrStats>
			</UnivariateStats>
			<UnivariateStats field="NAME_EDUCATION_TYPE">
				<Counts totalFreq="43051.0" missingFreq="0.0" invalidFreq="0.0"/>
				<DiscrStats>
					<Array type="string">"Academic degree" "Higher education" "Incomplete higher" "Lower secondary" "Secondary / secondary special"</Array>
					<Array type="int">21 10498 1427 538 30567</Array>
				</DiscrStats>
			</UnivariateStats>
			<UnivariateStats field="NAME_INCOME_TYPE">
				<Counts totalFreq="43051.0" missingFreq="0.0" invalidFreq="0.0"/>
				<DiscrStats>
					<Array type="string">"Commercial associate" "Maternity leave" Pensioner "State servant" Student Working</Array>
					<Array type="int">9937 1 7684 3057 2 22370</Array>
				</DiscrStats>
			</UnivariateStats>
			<UnivariateStats field="NAME_FAMILY_STATUS">
				<Counts totalFreq="43051.0" missingFreq="0.0" invalidFreq="0.0"/>
				<DiscrStats>
					<Array type="string">"Civil marriage" Married Separated "Single / not married" Widow</Array>
					<Array type="int">4155 27561 2764 6341 2230</Array>
				</DiscrStats>
			</UnivariateStats>
		</ModelStats>
		<Segmentation multipleModelMethod="modelChain">
			<Segment id="1">
				<True/>
				<MiningModel functionName="regression">
					<MiningSchema>
						<MiningField name="YEARS_BEGINEXPLUATATION_MEDI"/>
						<MiningField name="NAME_FAMILY_STATUS"/>
						<MiningField name="BASEMENTAREA_MEDI"/>
						<MiningField name="REGION_RATING_CLIENT_W_CITY"/>
						<MiningField name="EXT_SOURCE_2"/>
						<MiningField name="BASEMENTAREA_AVG"/>
						<MiningField name="APARTMENTS_MODE"/>
						<MiningField name="ENTRANCES_AVG"/>
						<MiningField name="AMT_CREDIT"/>
						<MiningField name="EXT_SOURCE_1"/>
						<MiningField name="CNT_FAM_MEMBERS"/>
						<MiningField name="OCCUPATION_TYPE"/>
						<MiningField name="FLAG_DOCUMENT_3"/>
						<MiningField name="APARTMENTS_AVG"/>
						<MiningField name="OWN_CAR_AGE"/>
						<MiningField name="REGION_POPULATION_RELATIVE"/>
						<MiningField name="AMT_REQ_CREDIT_BUREAU_YEAR"/>
						<MiningField name="YEARS_BEGINEXPLUATATION_MODE"/>
						<MiningField name="CODE_GENDER"/>
						<MiningField name="BASEMENTAREA_MODE"/>
						<MiningField name="LANDAREA_AVG"/>
						<MiningField name="NAME_INCOME_TYPE"/>
						<MiningField name="EXT_SOURCE_3"/>
						<MiningField name="LIVINGAPARTMENTS_AVG"/>
						<MiningField name="HOUR_APPR_PROCESS_START"/>
						<MiningField name="LIVINGAPARTMENTS_MODE"/>
						<MiningField name="DEF_60_CNT_SOCIAL_CIRCLE"/>
						<MiningField name="YEARS_BEGINEXPLUATATION_AVG"/>
						<MiningField name="DAYS_LAST_PHONE_CHANGE"/>
						<MiningField name="DAYS_ID_PUBLISH"/>
						<MiningField name="COMMONAREA_MODE"/>
						<MiningField name="DAYS_REGISTRATION"/>
						<MiningField name="AMT_INCOME_TOTAL"/>
						<MiningField name="NONLIVINGAREA_AVG"/>
						<MiningField name="DAYS_BIRTH"/>
						<MiningField name="LIVINGAREA_MODE"/>
						<MiningField name="COMMONAREA_AVG"/>
						<MiningField name="AMT_GOODS_PRICE"/>
						<MiningField name="YEARS_BUILD_AVG"/>
						<MiningField name="SK_ID_CURR"/>
						<MiningField name="AMT_ANNUITY"/>
						<MiningField name="LIVINGAREA_AVG"/>
						<MiningField name="OBS_30_CNT_SOCIAL_CIRCLE"/>
						<MiningField name="DAYS_EMPLOYED"/>
						<MiningField name="LANDAREA_MODE"/>
						<MiningField name="AMT_REQ_CREDIT_BUREAU_QRT"/>
						<MiningField name="TOTALAREA_MODE"/>
						<MiningField name="NONLIVINGAREA_MODE"/>
						<MiningField name="ORGANIZATION_TYPE"/>
						<MiningField name="NAME_EDUCATION_TYPE"/>
					</MiningSchema>
					<Output>
						<OutputField name="lgbmValue" optype="continuous" dataType="double" feature="predictedValue" isFinalResult="false"/>
						<OutputField name="transformedLgbmValue" optype="continuous" dataType="double" feature="transformedValue" isFinalResult="false">
							<Apply function="/">
								<Constant dataType="double">1.0</Constant>
								<Apply function="+">
									<Constant dataType="double">1.0</Constant>
									<Apply function="exp">
										<Apply function="*">
											<Constant dataType="double">-1.0</Constant>
											<FieldRef field="lgbmValue"/>
										</Apply>
									</Apply>
								</Apply>
							</Apply>
						</OutputField>
					</Output>
					<Segmentation multipleModelMethod="sum">
						<Segment id="1">
							<True/>
							<TreeModel functionName="regression" missingValueStrategy="none" noTrueChildStrategy="returnLastPrediction" splitCharacteristic="multiSplit">
								<MiningSchema>
									<MiningField name="EXT_SOURCE_1"/>
									<MiningField name="AMT_ANNUITY"/>
									<MiningField name="DAYS_BIRTH"/>
									<MiningField name="AMT_GOODS_PRICE"/>
									<MiningField name="OWN_CAR_AGE"/>
									<MiningField name="REGION_POPULATION_RELATIVE"/>
									<MiningField name="REGION_RATING_CLIENT_W_CITY"/>
									<MiningField name="YEARS_BEGINEXPLUATATION_MEDI"/>
									<MiningField name="NAME_EDUCATION_TYPE"/>
								</MiningSchema>
								<Node score="-2.4391553820814593">
									<True/>
									<Node score="-2.4396252964535114">
										<SimplePredicate field="EXT_SOURCE_1" operator="greaterThan" value="0.42546846224235746"/>
										<Node score="-2.445167517775706">
											<SimplePredicate field="EXT_SOURCE_1" operator="greaterThan" value="0.6394228999024779"/>
										</Node>
									</Node>
									<Node score="-2.43594112852252">
										<SimplePredicate field="DAYS_BIRTH" operator="greaterThan" value="-16396.499999999996"/>
										<Node score="-2.425870840641384">
											<SimplePredicate field="NAME_EDUCATION_TYPE=Secondary / secondary special" operator="greaterThan" value="1.0000000180025095E-35"/>
											<Node score="-2.434987030987785">
												<SimplePredicate field="YEARS_BEGINEXPLUATATION_MEDI" operator="greaterThan" value="0.9699500000000001"/>
												<Node score="-2.426752804655823">
													<SimplePredicate field="DAYS_BIRTH" operator="greaterThan" value="-14263.499999999998"/>
												</Node>
											</Node>
											<Node score="-2.4307410361676447">
												<SimplePredicate field="OWN_CAR_AGE" operator="greaterThan" value="-1.0000000180025095E-35"/>
												<Node score="-2.4353875208791846">
													<SimplePredicate field="REGION_POPULATION_RELATIVE" operator="greaterThan" value="0.027527500000000003"/>
												</Node>
												<Node score="-2.419343211998372">
													<SimplePredicate field="OWN_CAR_AGE" operator="greaterThan" value="9.500000000000002"/>
												</Node>
											</Node>
											<Node score="-2.4170001543664803">
												<SimplePredicate field="AMT_ANNUITY" operator="greaterThan" value="18533.250000000004"/>
												<Node score="-2.42516748084027">
													<SimplePredicate field="AMT_GOODS_PRICE" operator="greaterThan" value="675639.0000000001"/>
												</Node>
												<Node score="-2.4219310868872537">
													<SimplePredicate field="EXT_SOURCE_1" operator="greaterThan" value="0.27316483610965014"/>
												</Node>
												<Node score="-2.4001974277542293">
													<SimplePredicate field="DAYS_BIRTH" operator="greaterThan" value="-13809.499999999998"/>
												</Node>
											</Node>
										</Node>
										<Node score="-2.422185833196051">
											<SimplePredicate field="REGION_RATING_CLIENT_W_CITY" operator="greaterThan" value="2.5000000000000004"/>
										</Node>
									</Node>
									<Node score="-2.4420075969940904">
										<SimplePredicate field="YEARS_BEGINEXPLUATATION_MEDI" operator="greaterThan" value="0.97935"/>
									</Node>
									<Node score="-2.4176296963669692">
										<SimplePredicate field="EXT_SOURCE_1" operator="greaterThan" value="0.12670963477516786"/>
									</Node>
									<Node score="-2.434200403950002">
										<SimplePredicate field="DAYS_BIRTH" operator="greaterThan" value="-20153.499999999996"/>
										<Node score="-2.439878419756694">
											<SimplePredicate field="AMT_GOODS_PRICE" operator="greaterThan" value="675639.0000000001"/>
										</Node>
										<Node score="-2.423770279397982">
											<SimplePredicate field="AMT_ANNUITY" operator="greaterThan" value="24657.750000000004"/>
										</Node>
									</Node>
								</Node>
							</TreeModel>
						</Segment>
						<Segment id="2">
							<True/>
							<TreeModel functionName="regression" missingValueStrategy="none" noTrueChildStrategy="returnLastPrediction" splitCharacteristic="multiSplit">
								<MiningSchema>
									<MiningField name="EXT_SOURCE_2"/>
									<MiningField name="EXT_SOURCE_1"/>
									<MiningField name="AMT_CREDIT"/>
									<MiningField name="DAYS_ID_PUBLISH"/>
									<MiningField name="DAYS_EMPLOYED"/>
									<MiningField name="DEF_60_CNT_SOCIAL_CIRCLE"/>
									<MiningField name="LIVINGAREA_MODE"/>
									<MiningField name="OCCUPATION_TYPE"/>
									<MiningField name="NAME_INCOME_TYPE"/>
								</MiningSchema>
								<Node score="0.021358625198487885">
									<True/>
									<Node score="-0.0016447469261123154">
										<SimplePredicate field="EXT_SOURCE_2" operator="greaterThan" value="0.35654666266300045"/>
										<Node score="-0.005176706654593476">
											<SimplePredicate field="EXT_SOURCE_2" operator="greaterThan" value="0.5915954110173216"/>
											<Node score="-0.01274746138624625">
												<SimplePredicate field="EXT_SOURCE_1" operator="greaterThan" value="0.5334578106539812"/>
											</Node>
											<Node score="0.002546795261001214">
												<SimplePredicate field="OCCUPATION_TYPE=Drivers" operator="greaterThan" value="1.0000000180025095E-35"/>
											</Node>
											<Node score="-0.010141454651802226">
												<SimplePredicate field="EXT_SOURCE_2" operator="greaterThan" value="0.6893099080170182"/>
											</Node>
										</Node>
										<Node score="-0.008100609394175553">
											<SimplePredicate field="EXT_SOURCE_1" operator="greaterThan" value="0.634999879194602"/>
										</Node>
										<Node score="-0.00527137696305225">
											<SimplePredicate field="DAYS_EMPLOYED" operator="greaterThan" value="1.0000000180025095E-35"/>
										</Node>
										<Node score="0.004401313378466587">
											<SimplePredicate field="DAYS_EMPLOYED" operator="greaterThan" value="-2347.4999999999995"/>
											<Node score="0.01504736624778724">
												<SimplePredicate field="DEF_60_CNT_SOCIAL_CIRCLE" operator="greaterThan" value="1.0000000180025095E-35"/>
											</Node>
										</Node>
									</Node>
									<Node score="0.0032531294763621">
										<SimplePredicate field="EXT_SOURCE_2" operator="greaterThan" value="0.107381687046382"/>
										<Node score="-0.0017430426722865012">
											<SimplePredicate field="DAYS_EMPLOYED" operator="greaterThan" value="-89.49999999999999"/>
										</Node>
										<Node score="-0.00144306646330173">
											<SimplePredicate field="EXT_SOURCE_1" operator="greaterThan" value="0.42279563066140896"/>
										</Node>
										<Node score="0.03428772418247682">
											<SimplePredicate field="DAYS_ID_PUBLISH" operator="greaterThan" value="-4520.499999999999"/>
											<Node score="0.011809498511050433">
												<SimplePredicate field="EXT_SOURCE_2" operator="greaterThan" value="0.1596836349474592"/>
												<Node score="0.008231054605945731">
													<SimplePredicate field="LIVINGAREA_MODE" operator="greaterThan" value="0.060750000000000005"/>
												</Node>
												<Node score="0.030501904767814933">
													<SimplePredicate field="AMT_CREDIT" operator="greaterThan" value="267212.25000000006"/>
													<Node score="0.013614146599340534">
														<SimplePredicate field="AMT_CREDIT" operator="greaterThan" value="640269.0000000001"/>
													</Node>
												</Node>
											</Node>
										</Node>
									</Node>
									<Node score="0.03128654730369157">
										<SimplePredicate field="NAME_INCOME_TYPE=Working" operator="greaterThan" value="1.0000000180025095E-35"/>
										<Node score="0.0563671566691566">
											<SimplePredicate field="DAYS_EMPLOYED" operator="greaterThan" value="-1374.4999999999998"/>
										</Node>
									</Node>
								</Node>
							</TreeModel>
						</Segment>
						<Segment id="3">
							<True/>
							<TreeModel functionName="regression" missingValueStrategy="none" noTrueChildStrategy="returnLastPrediction" splitCharacteristic="multiSplit">
								<MiningSchema>
									<MiningField name="EXT_SOURCE_1"/>
									<MiningField name="AMT_ANNUITY"/>
									<MiningField name="DAYS_BIRTH"/>
									<MiningField name="DAYS_REGISTRATION"/>
									<MiningField name="OWN_CAR_AGE"/>
									<MiningField name="AMT_REQ_CREDIT_BUREAU_YEAR"/>
									<MiningField name="REGION_RATING_CLIENT_W_CITY"/>
									<MiningField name="LIVINGAREA_AVG"/>
									<MiningField name="OBS_30_CNT_SOCIAL_CIRCLE"/>
									<MiningField name="YEARS_BEGINEXPLUATATION_MODE"/>
									<MiningField name="YEARS_BEGINEXPLUATATION_MEDI"/>
									<MiningField name="CODE_GENDER"/>
									<MiningField name="NAME_INCOME_TYPE"/>
								</MiningSchema>
								<Node score="0.002177693406821905">
									<True/>
									<Node score="-0.004698841573073637">
										<SimplePredicate field="EXT_SOURCE_1" operator="greaterThan" value="0.42546846224235746"/>
										<Node score="-0.010185259588597907">
											<SimplePredicate field="EXT_SOURCE_1" operator="greaterThan" value="0.6394228999024779"/>
										</Node>
									</Node>
									<Node score="8.357049405886257E-4">
										<SimplePredicate field="DAYS_BIRTH" operator="greaterThan" value="-16396.499999999996"/>
										<Node score="0.005697919262213632">
											<SimplePredicate field="REGION_RATING_CLIENT_W_CITY" operator="greaterThan" value="2.5000000000000004"/>
											<Node score="0.0017678547705075817">
												<SimplePredicate field="YEARS_BEGINEXPLUATATION_MEDI" operator="greaterThan" value="0.9828500000000001"/>
											</Node>
											<Node score="0.0125620524501566">
												<SimplePredicate field="AMT_ANNUITY" operator="greaterThan" value="13911.750000000002"/>
												<Node score="0.03308428109524717">
													<SimplePredicate field="DAYS_REGISTRATION" operator="greaterThan" value="-4219.499999999999"/>
													<Node score="0.013017525874324153">
														<SimplePredicate field="EXT_SOURCE_1" operator="greaterThan" value="0.22201355287257973"/>
													</Node>
												</Node>
											</Node>
										</Node>
										<Node score="0.023950917407585332">
											<SimplePredicate field="NAME_INCOME_TYPE=Working" operator="greaterThan" value="1.0000000180025095E-35"/>
											<Node score="0.0032010390269825656">
												<SimplePredicate field="AMT_REQ_CREDIT_BUREAU_YEAR" operator="greaterThan" value="-1.0000000180025095E-35"/>
												<Node score="0.001973471707403317">
													<SimplePredicate field="OWN_CAR_AGE" operator="greaterThan" value="-1.0000000180025095E-35"/>
												</Node>
												<Node score="0.020472855251802185">
													<SimplePredicate field="AMT_ANNUITY" operator="greaterThan" value="20013.750000000004"/>
													<Node score="0.004841927328883337">
														<SimplePredicate field="LIVINGAREA_AVG" operator="greaterThan" value="0.006150000000000001"/>
													</Node>
												</Node>
											</Node>
											<Node score="0.007635758493219575">
												<SimplePredicate field="YEARS_BEGINEXPLUATATION_MODE" operator="greaterThan" value="1.0000000180025095E-35"/>
											</Node>
										</Node>
									</Node>
									<Node score="-0.002947355317949187">
										<SimplePredicate field="CODE_GENDER=F" operator="greaterThan" value="1.0000000180025095E-35"/>
										<Node score="-0.008421157087685843">
											<SimplePredicate field="YEARS_BEGINEXPLUATATION_MODE" operator="greaterThan" value="0.9739500000000001"/>
										</Node>
									</Node>
									<Node score="-0.0012282806784373174">
										<SimplePredicate field="OWN_CAR_AGE" operator="greaterThan" value="-1.0000000180025095E-35"/>
									</Node>
									<Node score="0.007055351230898405">
										<SimplePredicate field="DAYS_BIRTH" operator="greaterThan" value="-19570.499999999996"/>
										<Node score="0.031721037138606155">
											<SimplePredicate field="OBS_30_CNT_SOCIAL_CIRCLE" operator="greaterThan" value="1.0000000180025095E-35"/>
										</Node>
									</Node>
								</Node>
							</TreeModel>
						</Segment>
						<Segment id="4">
							<True/>
							<TreeModel functionName="regression" missingValueStrategy="none" noTrueChildStrategy="returnLastPrediction" splitCharacteristic="multiSplit">
								<MiningSchema>
									<MiningField name="EXT_SOURCE_3"/>
									<MiningField name="EXT_SOURCE_1"/>
									<MiningField name="AMT_ANNUITY"/>
									<MiningField name="DAYS_REGISTRATION"/>
									<MiningField name="DAYS_EMPLOYED"/>
									<MiningField name="DAYS_LAST_PHONE_CHANGE"/>
									<MiningField name="REGION_POPULATION_RELATIVE"/>
									<MiningField name="LIVINGAREA_AVG"/>
									<MiningField name="AMT_REQ_CREDIT_BUREAU_QRT"/>
								</MiningSchema>
								<Node score="-0.003037435020958724">
									<True/>
									<Node score="0.005503191657116416">
										<SimplePredicate field="EXT_SOURCE_3" operator="greaterThan" value="0.39019688424055093"/>
										<Node score="-0.010896400695065145">
											<SimplePredicate field="EXT_SOURCE_3" operator="greaterThan" value="0.6569710866047539"/>
										</Node>
										<Node score="-0.009832001339809137">
											<SimplePredicate field="EXT_SOURCE_1" operator="greaterThan" value="0.42546846224235746"/>
										</Node>
										<Node score="-0.007220314599889679">
											<SimplePredicate field="LIVINGAREA_AVG" operator="greaterThan" value="0.031950000000000006"/>
										</Node>
										<Node score="-0.0033490648372108975">
											<SimplePredicate field="EXT_SOURCE_3" operator="greaterThan" value="0.5055827794912245"/>
										</Node>
									</Node>
									<Node score="0.03032016222674394">
										<SimplePredicate field="EXT_SOURCE_3" operator="greaterThan" value="1.0000000180025095E-35"/>
										<Node score="0.007288660948121428">
											<SimplePredicate field="EXT_SOURCE_3" operator="greaterThan" value="0.15807494923058668"/>
											<Node score="-0.001417870520093676">
												<SimplePredicate field="EXT_SOURCE_1" operator="greaterThan" value="0.42546846224235746"/>
											</Node>
											<Node score="0.009004970553173196">
												<SimplePredicate field="EXT_SOURCE_3" operator="greaterThan" value="0.2657531190947183"/>
											</Node>
											<Node score="0.010015121467506624">
												<SimplePredicate field="DAYS_EMPLOYED" operator="greaterThan" value="-3129.9999999999995"/>
												<Node score="0.029425563957110934">
													<SimplePredicate field="AMT_ANNUITY" operator="greaterThan" value="13911.750000000002"/>
												</Node>
											</Node>
										</Node>
										<Node score="0.02054965431791071">
											<SimplePredicate field="EXT_SOURCE_1" operator="greaterThan" value="0.40215183191742404"/>
										</Node>
										<Node score="0.06016649103526871">
											<SimplePredicate field="DAYS_LAST_PHONE_CHANGE" operator="greaterThan" value="-943.4999999999999"/>
											<Node score="0.03616526609416778">
												<SimplePredicate field="REGION_POPULATION_RELATIVE" operator="greaterThan" value="0.022712500000000004"/>
											</Node>
										</Node>
									</Node>
									<Node score="-0.002911408688016116">
										<SimplePredicate field="LIVINGAREA_AVG" operator="greaterThan" value="0.026250000000000006"/>
									</Node>
									<Node score="-0.0027707761970070474">
										<SimplePredicate field="EXT_SOURCE_1" operator="greaterThan" value="0.2994512796610808"/>
									</Node>
									<Node score="0.020081845552410767">
										<SimplePredicate field="DAYS_REGISTRATION" operator="greaterThan" value="-4915.499999999999"/>
										<Node score="0.006091941396722916">
											<SimplePredicate field="AMT_REQ_CREDIT_BUREAU_QRT" operator="greaterThan" value="-1.0000000180025095E-35"/>
										</Node>
									</Node>
									<Node score="0.011877203408258012">
										<SimplePredicate field="AMT_ANNUITY" operator="greaterThan" value="26448.750000000004"/>
									</Node>
								</Node>
							</TreeModel>
						</Segment>
						<Segment id="5">
							<True/>
							<TreeModel functionName="regression" missingValueStrategy="none" noTrueChildStrategy="returnLastPrediction" splitCharacteristic="multiSplit">
								<MiningSchema>
									<MiningField name="EXT_SOURCE_3"/>
									<MiningField name="EXT_SOURCE_1"/>
									<MiningField name="AMT_CREDIT"/>
									<MiningField name="DAYS_LAST_PHONE_CHANGE"/>
									<MiningField name="REGION_POPULATION_RELATIVE"/>
									<MiningField name="BASEMENTAREA_MODE"/>
									<MiningField name="LIVINGAREA_MODE"/>
									<MiningField name="NAME_EDUCATION_TYPE"/>
									<MiningField name="NAME_INCOME_TYPE"/>
								</MiningSchema>
								<Node score="6.86310350798901E-5">
									<True/>
									<Node score="0.005259601253439027">
										<SimplePredicate field="EXT_SOURCE_3" operator="greaterThan" value="0.39019688424055093"/>
										<Node score="-0.010869510153614273">
											<SimplePredicate field="EXT_SOURCE_3" operator="greaterThan" value="0.6585946661383326"/>
										</Node>
										<Node score="-0.009797521492005632">
											<SimplePredicate field="EXT_SOURCE_1" operator="greaterThan" value="0.42546846224235746"/>
										</Node>
										<Node score="-0.00731877949331898">
											<SimplePredicate field="LIVINGAREA_MODE" operator="greaterThan" value="0.03345000000000001"/>
										</Node>
										<Node score="-0.003249081800400773">
											<SimplePredicate field="EXT_SOURCE_3" operator="greaterThan" value="0.5055827794912245"/>
										</Node>
									</Node>
									<Node score="0.05282468526109138">
										<SimplePredicate field="EXT_SOURCE_3" operator="greaterThan" value="1.0000000180025095E-35"/>
										<Node score="0.005076932559538042">
											<SimplePredicate field="EXT_SOURCE_3" operator="greaterThan" value="0.2295211567820439"/>
											<Node score="-0.003588738004665877">
												<SimplePredicate field="EXT_SOURCE_1" operator="greaterThan" value="0.42546846224235746"/>
											</Node>
											<Node score="0.014221618427497444">
												<SimplePredicate field="NAME_INCOME_TYPE=Working" operator="greaterThan" value="1.0000000180025095E-35"/>
											</Node>
										</Node>
										<Node score="0.007297540497551555">
											<SimplePredicate field="EXT_SOURCE_3" operator="greaterThan" value="0.14420309987290328"/>
											<Node score="0.013491801319320349">
												<SimplePredicate field="NAME_EDUCATION_TYPE=Secondary / secondary special" operator="greaterThan" value="1.0000000180025095E-35"/>
												<Node score="0.03908037386909435">
													<SimplePredicate field="AMT_CREDIT" operator="greaterThan" value="280251.00000000006"/>
													<Node score="0.017819535060772818">
														<SimplePredicate field="REGION_POPULATION_RELATIVE" operator="greaterThan" value="0.023705000000000004"/>
													</Node>
												</Node>
											</Node>
										</Node>
										<Node score="0.022711315199194518">
											<SimplePredicate field="REGION_POPULATION_RELATIVE" operator="greaterThan" value="0.027527500000000003"/>
										</Node>
										<Node score="0.031161260771436872">
											<SimplePredicate field="EXT_SOURCE_1" operator="greaterThan" value="0.2506154865752896"/>
										</Node>
									</Node>
									<Node score="-0.004970434063557377">
										<SimplePredicate field="EXT_SOURCE_1" operator="greaterThan" value="0.36893664570001233"/>
									</Node>
									<Node score="0.008150575813461626">
										<SimplePredicate field="NAME_INCOME_TYPE=Working" operator="greaterThan" value="1.0000000180025095E-35"/>
										<Node score="9.444897058570989E-4">
											<SimplePredicate field="BASEMENTAREA_MODE" operator="greaterThan" value="1.0000000180025095E-35"/>
										</Node>
										<Node score="0.02297960817736668">
											<SimplePredicate field="DAYS_LAST_PHONE_CHANGE" operator="greaterThan" value="-424.49999999999994"/>
										</Node>
									</Node>
								</Node>
							</TreeModel>
						</Segment>
						<Segment id="6">
							<True/>
							<TreeModel functionName="regression" missingValueStrategy="none" noTrueChildStrategy="returnLastPrediction" splitCharacteristic="multiSplit">
								<MiningSchema>
									<MiningField name="EXT_SOURCE_3"/>
									<MiningField name="EXT_SOURCE_1"/>
									<MiningField name="DAYS_REGISTRATION"/>
									<MiningField name="DAYS_EMPLOYED"/>
									<MiningField name="DAYS_LAST_PHONE_CHANGE"/>
									<MiningField name="APARTMENTS_AVG"/>
									<MiningField name="NAME_EDUCATION_TYPE"/>
									<MiningField name="NAME_INCOME_TYPE"/>
								</MiningSchema>
								<Node score="0.0029000781184931783">
									<True/>
									<Node score="-0.008603167609430388">
										<SimplePredicate field="EXT_SOURCE_3" operator="greaterThan" value="0.42501160459970394"/>
										<Node score="-0.010819303907017363">
											<SimplePredicate field="EXT_SOURCE_3" operator="greaterThan" value="0.6602145355995713"/>
										</Node>
										<Node score="-5.02735722853083E-4">
											<SimplePredicate field="NAME_INCOME_TYPE=Working" operator="greaterThan" value="1.0000000180025095E-35"/>
											<Node score="-0.009281644904175651">
												<SimplePredicate field="EXT_SOURCE_1" operator="greaterThan" value="0.5399999228221041"/>
											</Node>
										</Node>
									</Node>
									<Node score="-0.0014362334408876392">
										<SimplePredicate field="EXT_SOURCE_1" operator="greaterThan" value="0.42546846224235746"/>
									</Node>
									<Node score="0.02967630758262058">
										<SimplePredicate field="EXT_SOURCE_3" operator="greaterThan" value="1.0000000180025095E-35"/>
										<Node score="-0.00254071846017288">
											<SimplePredicate field="EXT_SOURCE_3" operator="greaterThan" value="0.15147104206873865"/>
											<Node score="0.0011549362660028795">
												<SimplePredicate field="EXT_SOURCE_3" operator="greaterThan" value="0.2657531190947183"/>
												<Node score="5.967791852776741E-4">
													<SimplePredicate field="NAME_EDUCATION_TYPE=Secondary / secondary special" operator="greaterThan" value="1.0000000180025095E-35"/>
													<Node score="0.012279262861172221">
														<SimplePredicate field="DAYS_EMPLOYED" operator="greaterThan" value="-2948.4999999999995"/>
													</Node>
												</Node>
											</Node>
											<Node score="0.014472923358100777">
												<SimplePredicate field="NAME_EDUCATION_TYPE=Secondary / secondary special" operator="greaterThan" value="1.0000000180025095E-35"/>
												<Node score="0.02083628912398168">
													<SimplePredicate field="DAYS_REGISTRATION" operator="greaterThan" value="-5134.499999999999"/>
													<Node score="0.03902802487608787">
														<SimplePredicate field="DAYS_EMPLOYED" operator="greaterThan" value="-1353.4999999999998"/>
													</Node>
												</Node>
											</Node>
											<Node score="0.017145847412848234">
												<SimplePredicate field="DAYS_LAST_PHONE_CHANGE" operator="greaterThan" value="-491.49999999999994"/>
											</Node>
										</Node>
										<Node score="0.03490296911878282">
											<SimplePredicate field="DAYS_LAST_PHONE_CHANGE" operator="greaterThan" value="-919.4999999999999"/>
											<Node score="0.05522905273978659">
												<SimplePredicate field="DAYS_EMPLOYED" operator="greaterThan" value="-1246.4999999999998"/>
											</Node>
										</Node>
									</Node>
									<Node score="-0.0015562549457716491">
										<SimplePredicate field="APARTMENTS_AVG" operator="greaterThan" value="0.03735000000000001"/>
									</Node>
									<Node score="0.007022371013343108">
										<SimplePredicate field="NAME_INCOME_TYPE=Working" operator="greaterThan" value="1.0000000180025095E-35"/>
										<Node score="0.021122321916473848">
											<SimplePredicate field="DAYS_LAST_PHONE_CHANGE" operator="greaterThan" value="-424.49999999999994"/>
										</Node>
									</Node>
								</Node>
							</TreeModel>
						</Segment>
						<Segment id="7">
							<True/>
							<TreeModel functionName="regression" missingValueStrategy="none" noTrueChildStrategy="returnLastPrediction" splitCharacteristic="multiSplit">
								<MiningSchema>
									<MiningField name="DAYS_BIRTH"/>
									<MiningField name="DAYS_REGISTRATION"/>
									<MiningField name="AMT_GOODS_PRICE"/>
									<MiningField name="DAYS_LAST_PHONE_CHANGE"/>
									<MiningField name="OWN_CAR_AGE"/>
									<MiningField name="REGION_POPULATION_RELATIVE"/>
									<MiningField name="AMT_INCOME_TOTAL"/>
									<MiningField name="LIVINGAREA_AVG"/>
									<MiningField name="LIVINGAREA_MODE"/>
									<MiningField name="CODE_GENDER"/>
									<MiningField name="NAME_EDUCATION_TYPE"/>
									<MiningField name="NAME_INCOME_TYPE"/>
								</MiningSchema>
								<Node score="-0.00732317394448576">
									<True/>
									<Node score="-6.851118901517145E-4">
										<SimplePredicate field="NAME_INCOME_TYPE=Working" operator="greaterThan" value="1.0000000180025095E-35"/>
										<Node score="-0.004091442372158332">
											<SimplePredicate field="NAME_EDUCATION_TYPE=Higher education" operator="greaterThan" value="1.0000000180025095E-35"/>
										</Node>
										<Node score="0.002777279910451382">
											<SimplePredicate field="DAYS_LAST_PHONE_CHANGE" operator="greaterThan" value="-1105.4999999999998"/>
											<Node score="0.008971650065428565">
												<SimplePredicate field="AMT_GOODS_PRICE" operator="greaterThan" value="675639.0000000001"/>
												<Node score="-0.007485015931061454">
													<SimplePredicate field="AMT_GOODS_PRICE" operator="greaterThan" value="1005750.0000000001"/>
												</Node>
												<Node score="-0.0043381662634430695">
													<SimplePredicate field="LIVINGAREA_MODE" operator="greaterThan" value="0.01735"/>
												</Node>
											</Node>
											<Node score="0.005116403634503481">
												<SimplePredicate field="CODE_GENDER=M" operator="greaterThan" value="1.0000000180025095E-35"/>
												<Node score="0.030156745891670996">
													<SimplePredicate field="DAYS_REGISTRATION" operator="greaterThan" value="-3421.4999999999995"/>
													<Node score="0.023402395986277285">
														<SimplePredicate field="OWN_CAR_AGE" operator="greaterThan" value="-1.0000000180025095E-35"/>
														<Node score="0.00500400152872984">
															<SimplePredicate field="REGION_POPULATION_RELATIVE" operator="greaterThan" value="0.018421500000000004"/>
														</Node>
													</Node>
												</Node>
												<Node score="0.017419472436337756">
													<SimplePredicate field="AMT_GOODS_PRICE" operator="greaterThan" value="317250.00000000006"/>
												</Node>
											</Node>
											<Node score="0.003582201020215049">
												<SimplePredicate field="DAYS_BIRTH" operator="greaterThan" value="-14356.499999999998"/>
												<Node score="0.01625781508252521">
													<SimplePredicate field="AMT_GOODS_PRICE" operator="greaterThan" value="194892.75000000003"/>
												</Node>
											</Node>
										</Node>
										<Node score="-0.006800006072604695">
											<SimplePredicate field="LIVINGAREA_AVG" operator="greaterThan" value="0.08725000000000001"/>
										</Node>
										<Node score="0.006303011573855658">
											<SimplePredicate field="DAYS_BIRTH" operator="greaterThan" value="-13705.499999999998"/>
										</Node>
									</Node>
									<Node score="0.006419467226073057">
										<SimplePredicate field="DAYS_BIRTH" operator="greaterThan" value="-13656.499999999998"/>
										<Node score="-0.0035185878357403377">
											<SimplePredicate field="AMT_INCOME_TOTAL" operator="greaterThan" value="170550.00000000003"/>
										</Node>
									</Node>
									<Node score="-0.008851654913259519">
										<SimplePredicate field="LIVINGAREA_MODE" operator="greaterThan" value="0.04755000000000001"/>
									</Node>
									<Node score="-0.0015913698408355633">
										<SimplePredicate field="DAYS_LAST_PHONE_CHANGE" operator="greaterThan" value="-1047.4999999999998"/>
									</Node>
								</Node>
							</TreeModel>
						</Segment>
						<Segment id="8">
							<True/>
							<TreeModel functionName="regression" missingValueStrategy="none" noTrueChildStrategy="returnLastPrediction" splitCharacteristic="multiSplit">
								<MiningSchema>
									<MiningField name="EXT_SOURCE_3"/>
									<MiningField name="EXT_SOURCE_2"/>
									<MiningField name="EXT_SOURCE_1"/>
									<MiningField name="AMT_ANNUITY"/>
									<MiningField name="DAYS_ID_PUBLISH"/>
									<MiningField name="LIVINGAREA_AVG"/>
								</MiningSchema>
								<Node score="0.050188629849037006">
									<True/>
									<Node score="0.0011660909354238613">
										<SimplePredicate field="EXT_SOURCE_2" operator="greaterThan" value="0.35654666266300045"/>
										<Node score="-0.007600407231458107">
											<SimplePredicate field="EXT_SOURCE_3" operator="greaterThan" value="0.42501160459970394"/>
											<Node score="-0.012178104258321344">
												<SimplePredicate field="EXT_SOURCE_2" operator="greaterThan" value="0.6237839998920278"/>
											</Node>
										</Node>
										<Node score="-7.143216879377551E-4">
											<SimplePredicate field="EXT_SOURCE_2" operator="greaterThan" value="0.6072828398169047"/>
											<Node score="-0.009149761431293294">
												<SimplePredicate field="EXT_SOURCE_1" operator="greaterThan" value="0.4171294158534626"/>
											</Node>
										</Node>
										<Node score="0.03442896828771718">
											<SimplePredicate field="EXT_SOURCE_3" operator="greaterThan" value="1.0000000180025095E-35"/>
											<Node score="0.015647875431269425">
												<SimplePredicate field="EXT_SOURCE_3" operator="greaterThan" value="0.14420309987290328"/>
												<Node score="0.004449062745344054">
													<SimplePredicate field="EXT_SOURCE_3" operator="greaterThan" value="0.2657531190947183"/>
												</Node>
											</Node>
										</Node>
									</Node>
									<Node score="0.01974434057665268">
										<SimplePredicate field="EXT_SOURCE_3" operator="greaterThan" value="0.3631112428254143"/>
										<Node score="0.004998194932072958">
											<SimplePredicate field="EXT_SOURCE_2" operator="greaterThan" value="0.06760393993753604"/>
											<Node score="-0.002543035432167916">
												<SimplePredicate field="EXT_SOURCE_3" operator="greaterThan" value="0.5717995232445786"/>
											</Node>
											<Node score="-0.007409887199547269">
												<SimplePredicate field="EXT_SOURCE_1" operator="greaterThan" value="0.42279563066140896"/>
											</Node>
											<Node score="0.021150387261040036">
												<SimplePredicate field="AMT_ANNUITY" operator="greaterThan" value="24545.250000000004"/>
											</Node>
										</Node>
									</Node>
									<Node score="9.387327584769681E-4">
										<SimplePredicate field="EXT_SOURCE_2" operator="greaterThan" value="0.08717160970798508"/>
										<Node score="0.048719194857421155">
											<SimplePredicate field="EXT_SOURCE_3" operator="greaterThan" value="1.0000000180025095E-35"/>
											<Node score="0.0018525391788572962">
												<SimplePredicate field="EXT_SOURCE_3" operator="greaterThan" value="0.18249713850204444"/>
												<Node score="0.025149328145424168">
													<SimplePredicate field="AMT_ANNUITY" operator="greaterThan" value="16877.250000000004"/>
												</Node>
											</Node>
										</Node>
										<Node score="0.025771316176593884">
											<SimplePredicate field="DAYS_ID_PUBLISH" operator="greaterThan" value="-4045.4999999999995"/>
											<Node score="0.006813250125004533">
												<SimplePredicate field="LIVINGAREA_AVG" operator="greaterThan" value="0.017650000000000002"/>
											</Node>
										</Node>
									</Node>
								</Node>
							</TreeModel>
						</Segment>
						<Segment id="9">
							<True/>
							<TreeModel functionName="regression" missingValueStrategy="none" noTrueChildStrategy="returnLastPrediction" splitCharacteristic="multiSplit">
								<MiningSchema>
									<MiningField name="EXT_SOURCE_3"/>
									<MiningField name="DAYS_ID_PUBLISH"/>
									<MiningField name="DAYS_REGISTRATION"/>
									<MiningField name="AMT_GOODS_PRICE"/>
									<MiningField name="DAYS_LAST_PHONE_CHANGE"/>
									<MiningField name="HOUR_APPR_PROCESS_START"/>
									<MiningField name="AMT_REQ_CREDIT_BUREAU_YEAR"/>
									<MiningField name="LIVINGAPARTMENTS_AVG"/>
									<MiningField name="YEARS_BEGINEXPLUATATION_MEDI"/>
									<MiningField name="CODE_GENDER"/>
									<MiningField name="NAME_EDUCATION_TYPE"/>
									<MiningField name="NAME_INCOME_TYPE"/>
								</MiningSchema>
								<Node score="-0.012860982632427014">
									<True/>
									<Node score="-0.008412371245852176">
										<SimplePredicate field="EXT_SOURCE_3" operator="greaterThan" value="0.42501160459970394"/>
										<Node score="-0.010659690708377089">
											<SimplePredicate field="EXT_SOURCE_3" operator="greaterThan" value="0.6602145355995713"/>
										</Node>
										<Node score="-0.002045757093843534">
											<SimplePredicate field="NAME_INCOME_TYPE=Working" operator="greaterThan" value="1.0000000180025095E-35"/>
										</Node>
									</Node>
									<Node score="0.03816572661451524">
										<SimplePredicate field="EXT_SOURCE_3" operator="greaterThan" value="1.0000000180025095E-35"/>
										<Node score="0.010545803826620275">
											<SimplePredicate field="EXT_SOURCE_3" operator="greaterThan" value="0.15147104206873865"/>
											<Node score="0.006100764991944512">
												<SimplePredicate field="EXT_SOURCE_3" operator="greaterThan" value="0.2657531190947183"/>
												<Node score="-0.0027157064819032734">
													<SimplePredicate field="LIVINGAPARTMENTS_AVG" operator="greaterThan" value="0.05390000000000001"/>
												</Node>
											</Node>
											<Node score="0.003948927416268802">
												<SimplePredicate field="NAME_EDUCATION_TYPE=Higher education" operator="greaterThan" value="1.0000000180025095E-35"/>
											</Node>
											<Node score="0.014492929024752757">
												<SimplePredicate field="NAME_INCOME_TYPE=Working" operator="greaterThan" value="1.0000000180025095E-35"/>
												<Node score="0.030761494282383138">
													<SimplePredicate field="DAYS_LAST_PHONE_CHANGE" operator="greaterThan" value="-967.4999999999999"/>
												</Node>
											</Node>
										</Node>
										<Node score="0.01973056086597446">
											<SimplePredicate field="YEARS_BEGINEXPLUATATION_MEDI" operator="greaterThan" value="0.9823500000000002"/>
										</Node>
									</Node>
									<Node score="-0.006152992971037477">
										<SimplePredicate field="NAME_EDUCATION_TYPE=Higher education" operator="greaterThan" value="1.0000000180025095E-35"/>
									</Node>
									<Node score="7.899590099534196E-4">
										<SimplePredicate field="DAYS_ID_PUBLISH" operator="greaterThan" value="-4734.499999999999"/>
										<Node score="0.02700156023750566">
											<SimplePredicate field="DAYS_REGISTRATION" operator="greaterThan" value="-5710.499999999999"/>
											<Node score="-0.004747540737035144">
												<SimplePredicate field="AMT_GOODS_PRICE" operator="greaterThan" value="883577.2500000001"/>
											</Node>
											<Node score="5.248953902920263E-4">
												<SimplePredicate field="HOUR_APPR_PROCESS_START" operator="greaterThan" value="14.500000000000002"/>
											</Node>
											<Node score="-0.003102785772346387">
												<SimplePredicate field="AMT_REQ_CREDIT_BUREAU_YEAR" operator="greaterThan" value="-1.0000000180025095E-35"/>
												<Node score="0.015537558498297214">
													<SimplePredicate field="AMT_GOODS_PRICE" operator="greaterThan" value="299250.00000000006"/>
												</Node>
											</Node>
											<Node score="0.013087733521895826">
												<SimplePredicate field="CODE_GENDER=F" operator="greaterThan" value="1.0000000180025095E-35"/>
											</Node>
										</Node>
									</Node>
								</Node>
							</TreeModel>
						</Segment>
						<Segment id="10">
							<True/>
							<TreeModel functionName="regression" missingValueStrategy="none" noTrueChildStrategy="returnLastPrediction" splitCharacteristic="multiSplit">
								<MiningSchema>
									<MiningField name="AMT_ANNUITY"/>
									<MiningField name="DAYS_REGISTRATION"/>
									<MiningField name="DAYS_EMPLOYED"/>
									<MiningField name="DAYS_LAST_PHONE_CHANGE"/>
									<MiningField name="SK_ID_CURR"/>
									<MiningField name="TOTALAREA_MODE"/>
									<MiningField name="LANDAREA_AVG"/>
									<MiningField name="FLAG_DOCUMENT_3"/>
									<MiningField name="YEARS_BEGINEXPLUATATION_MODE"/>
									<MiningField name="NAME_EDUCATION_TYPE"/>
									<MiningField name="NAME_INCOME_TYPE"/>
									<MiningField name="NAME_FAMILY_STATUS"/>
								</MiningSchema>
								<Node score="-0.005329175117116176">
									<True/>
									<Node score="-0.004539724216452912">
										<SimplePredicate field="NAME_INCOME_TYPE=Working" operator="greaterThan" value="1.0000000180025095E-35"/>
										<Node score="7.489259121447358E-4">
											<SimplePredicate field="DAYS_EMPLOYED" operator="greaterThan" value="-1776.4999999999998"/>
											<Node score="-0.0016849888832866998">
												<SimplePredicate field="NAME_EDUCATION_TYPE=Higher education" operator="greaterThan" value="1.0000000180025095E-35"/>
											</Node>
											<Node score="0.004328424939141374">
												<SimplePredicate field="DAYS_LAST_PHONE_CHANGE" operator="greaterThan" value="-1116.4999999999998"/>
												<Node score="0.004542125765418238">
													<SimplePredicate field="AMT_ANNUITY" operator="greaterThan" value="13502.250000000002"/>
													<Node score="0.007378176975868285">
														<SimplePredicate field="LANDAREA_AVG" operator="greaterThan" value="0.019250000000000003"/>
													</Node>
													<Node score="0.019231800576851026">
														<SimplePredicate field="DAYS_REGISTRATION" operator="greaterThan" value="-5710.499999999999"/>
													</Node>
													<Node score="0.01801691366566771">
														<SimplePredicate field="DAYS_LAST_PHONE_CHANGE" operator="greaterThan" value="-321.49999999999994"/>
													</Node>
												</Node>
											</Node>
											<Node score="0.015673826410325983">
												<SimplePredicate field="NAME_FAMILY_STATUS=Single / not married" operator="greaterThan" value="1.0000000180025095E-35"/>
											</Node>
										</Node>
										<Node score="-0.005314415293620658">
											<SimplePredicate field="YEARS_BEGINEXPLUATATION_MODE" operator="greaterThan" value="0.9764500000000002"/>
										</Node>
										<Node score="-0.0014268551740206285">
											<SimplePredicate field="DAYS_LAST_PHONE_CHANGE" operator="greaterThan" value="-1697.4999999999998"/>
											<Node score="0.006660680981785108">
												<SimplePredicate field="DAYS_REGISTRATION" operator="greaterThan" value="-5710.499999999999"/>
											</Node>
										</Node>
									</Node>
									<Node score="-0.006724740027404919">
										<SimplePredicate field="TOTALAREA_MODE" operator="greaterThan" value="0.027050000000000005"/>
									</Node>
									<Node score="2.1386259728617746E-4">
										<SimplePredicate field="DAYS_LAST_PHONE_CHANGE" operator="greaterThan" value="-1149.4999999999998"/>
										<Node score="-0.007771823327523024">
											<SimplePredicate field="FLAG_DOCUMENT_3" operator="greaterThan" value="1.0000000180025095E-35"/>
											<Node score="0.01189500458380814">
												<SimplePredicate field="DAYS_REGISTRATION" operator="greaterThan" value="-2363.4999999999995"/>
												<Node score="-0.0010507457423811007">
													<SimplePredicate field="DAYS_LAST_PHONE_CHANGE" operator="greaterThan" value="-13.499999999999998"/>
												</Node>
											</Node>
											<Node score="0.002653086855061928">
												<SimplePredicate field="DAYS_EMPLOYED" operator="greaterThan" value="-3054.4999999999995"/>
											</Node>
										</Node>
										<Node score="-0.009447715303255888">
											<SimplePredicate field="SK_ID_CURR" operator="greaterThan" value="320671.00000000006"/>
										</Node>
									</Node>
								</Node>
							</TreeModel>
						</Segment>
						<Segment id="11">
							<True/>
							<TreeModel functionName="regression" missingValueStrategy="none" noTrueChildStrategy="returnLastPrediction" splitCharacteristic="multiSplit">
								<MiningSchema>
									<MiningField name="EXT_SOURCE_3"/>
									<MiningField name="DAYS_ID_PUBLISH"/>
									<MiningField name="DAYS_REGISTRATION"/>
									<MiningField name="DAYS_EMPLOYED"/>
									<MiningField name="REGION_POPULATION_RELATIVE"/>
									<MiningField name="REGION_RATING_CLIENT_W_CITY"/>
									<MiningField name="CODE_GENDER"/>
									<MiningField name="NAME_EDUCATION_TYPE"/>
									<MiningField name="NAME_FAMILY_STATUS"/>
								</MiningSchema>
								<Node score="-0.0021102278969353234">
									<True/>
									<Node score="-0.007325364629940664">
										<SimplePredicate field="EXT_SOURCE_3" operator="greaterThan" value="0.39019688424055093"/>
										<Node score="-0.01029421648250229">
											<SimplePredicate field="EXT_SOURCE_3" operator="greaterThan" value="0.6471533790182341"/>
										</Node>
										<Node score="-0.006899409900198508">
											<SimplePredicate field="CODE_GENDER=M" operator="greaterThan" value="1.0000000180025095E-35"/>
											<Node score="0.01111761870454639">
												<SimplePredicate field="NAME_EDUCATION_TYPE=Secondary / secondary special" operator="greaterThan" value="1.0000000180025095E-35"/>
												<Node score="3.640353015134116E-4">
													<SimplePredicate field="NAME_FAMILY_STATUS=Married" operator="greaterThan" value="1.0000000180025095E-35"/>
												</Node>
											</Node>
										</Node>
										<Node score="5.504411520651999E-4">
											<SimplePredicate field="REGION_RATING_CLIENT_W_CITY" operator="greaterThan" value="2.5000000000000004"/>
										</Node>
									</Node>
									<Node score="0.04799683822839411">
										<SimplePredicate field="EXT_SOURCE_3" operator="greaterThan" value="1.0000000180025095E-35"/>
										<Node score="-0.005212757289071566">
											<SimplePredicate field="EXT_SOURCE_3" operator="greaterThan" value="0.2295211567820439"/>
											<Node score="0.025323467854481727">
												<SimplePredicate field="REGION_RATING_CLIENT_W_CITY" operator="greaterThan" value="2.5000000000000004"/>
												<Node score="0.00699930477163092">
													<SimplePredicate field="EXT_SOURCE_3" operator="greaterThan" value="0.3178136513186039"/>
												</Node>
											</Node>
											<Node score="0.006144133700638149">
												<SimplePredicate field="DAYS_EMPLOYED" operator="greaterThan" value="-3947.4999999999995"/>
											</Node>
										</Node>
										<Node score="0.009921765507914914">
											<SimplePredicate field="REGION_POPULATION_RELATIVE" operator="greaterThan" value="0.027527500000000003"/>
										</Node>
										<Node score="0.01634013624533468">
											<SimplePredicate field="EXT_SOURCE_3" operator="greaterThan" value="0.08145576780959267"/>
											<Node score="0.015970857951511305">
												<SimplePredicate field="DAYS_EMPLOYED" operator="greaterThan" value="-1514.4999999999998"/>
												<Node score="0.0341971767412556">
													<SimplePredicate field="DAYS_REGISTRATION" operator="greaterThan" value="-6118.499999999999"/>
												</Node>
											</Node>
										</Node>
									</Node>
									<Node score="-0.0018513713268227463">
										<SimplePredicate field="CODE_GENDER=M" operator="greaterThan" value="1.0000000180025095E-35"/>
										<Node score="0.0015158981687901421">
											<SimplePredicate field="NAME_EDUCATION_TYPE=Secondary / secondary special" operator="greaterThan" value="1.0000000180025095E-35"/>
											<Node score="0.014895393001810626">
												<SimplePredicate field="DAYS_ID_PUBLISH" operator="greaterThan" value="-4188.499999999999"/>
											</Node>
										</Node>
									</Node>
									<Node score="0.010572182143470804">
										<SimplePredicate field="REGION_RATING_CLIENT_W_CITY" operator="greaterThan" value="2.5000000000000004"/>
									</Node>
								</Node>
							</TreeModel>
						</Segment>
						<Segment id="12">
							<True/>
							<TreeModel functionName="regression" missingValueStrategy="none" noTrueChildStrategy="returnLastPrediction" splitCharacteristic="multiSplit">
								<MiningSchema>
									<MiningField name="EXT_SOURCE_1"/>
									<MiningField name="AMT_CREDIT"/>
									<MiningField name="DAYS_BIRTH"/>
									<MiningField name="DAYS_EMPLOYED"/>
									<MiningField name="HOUR_APPR_PROCESS_START"/>
									<MiningField name="APARTMENTS_AVG"/>
									<MiningField name="REGION_RATING_CLIENT_W_CITY"/>
									<MiningField name="AMT_REQ_CREDIT_BUREAU_QRT"/>
									<MiningField name="NAME_EDUCATION_TYPE"/>
									<MiningField name="NAME_FAMILY_STATUS"/>
								</MiningSchema>
								<Node score="-0.005418834533097099">
									<True/>
									<Node score="-0.005625353115936412">
										<SimplePredicate field="EXT_SOURCE_1" operator="greaterThan" value="0.42546846224235746"/>
										<Node score="-0.010403877925422918">
											<SimplePredicate field="EXT_SOURCE_1" operator="greaterThan" value="0.6502671066932053"/>
										</Node>
										<Node score="0.004047383420818027">
											<SimplePredicate field="REGION_RATING_CLIENT_W_CITY" operator="greaterThan" value="2.5000000000000004"/>
										</Node>
									</Node>
									<Node score="0.012026480313928951">
										<SimplePredicate field="DAYS_BIRTH" operator="greaterThan" value="-17220.499999999996"/>
										<Node score="-0.0030602218626468443">
											<SimplePredicate field="NAME_EDUCATION_TYPE=Higher education" operator="greaterThan" value="1.0000000180025095E-35"/>
											<Node score="0.0069326750561344635">
												<SimplePredicate field="REGION_RATING_CLIENT_W_CITY" operator="greaterThan" value="2.5000000000000004"/>
											</Node>
										</Node>
										<Node score="0.001982862111979942">
											<SimplePredicate field="REGION_RATING_CLIENT_W_CITY" operator="greaterThan" value="2.5000000000000004"/>
											<Node score="0.031144023467118902">
												<SimplePredicate field="DAYS_EMPLOYED" operator="greaterThan" value="-3054.4999999999995"/>
												<Node score="0.006093049593019445">
													<SimplePredicate field="HOUR_APPR_PROCESS_START" operator="greaterThan" value="8.500000000000002"/>
													<Node score="0.022454892827472504">
														<SimplePredicate field="AMT_CREDIT" operator="greaterThan" value="296392.50000000006"/>
													</Node>
												</Node>
											</Node>
										</Node>
										<Node score="0.002832563424308671">
											<SimplePredicate field="DAYS_EMPLOYED" operator="greaterThan" value="-1495.4999999999998"/>
											<Node score="0.017356814198689504">
												<SimplePredicate field="AMT_CREDIT" operator="greaterThan" value="251640.00000000003"/>
												<Node score="0.016069064401141458">
													<SimplePredicate field="AMT_CREDIT" operator="greaterThan" value="674255.2500000001"/>
													<Node score="0.001637547568261236">
														<SimplePredicate field="NAME_FAMILY_STATUS=Married" operator="greaterThan" value="1.0000000180025095E-35"/>
													</Node>
												</Node>
												<Node score="0.006328896017775142">
													<SimplePredicate field="EXT_SOURCE_1" operator="greaterThan" value="0.26633851753493526"/>
												</Node>
											</Node>
										</Node>
										<Node score="0.004466484542218296">
											<SimplePredicate field="AMT_REQ_CREDIT_BUREAU_QRT" operator="greaterThan" value="-1.0000000180025095E-35"/>
											<Node score="-0.002641859427933505">
												<SimplePredicate field="APARTMENTS_AVG" operator="greaterThan" value="0.0035"/>
											</Node>
										</Node>
									</Node>
									<Node score="-9.512258663120752E-4">
										<SimplePredicate field="DAYS_BIRTH" operator="greaterThan" value="-19973.499999999996"/>
										<Node score="0.00922952201940367">
											<SimplePredicate field="REGION_RATING_CLIENT_W_CITY" operator="greaterThan" value="2.5000000000000004"/>
										</Node>
									</Node>
								</Node>
							</TreeModel>
						</Segment>
						<Segment id="13">
							<True/>
							<TreeModel functionName="regression" missingValueStrategy="none" noTrueChildStrategy="returnLastPrediction" splitCharacteristic="multiSplit">
								<MiningSchema>
									<MiningField name="EXT_SOURCE_3"/>
									<MiningField name="EXT_SOURCE_2"/>
									<MiningField name="EXT_SOURCE_1"/>
									<MiningField name="AMT_ANNUITY"/>
									<MiningField name="CODE_GENDER"/>
									<MiningField name="NAME_INCOME_TYPE"/>
								</MiningSchema>
								<Node score="0.02905198982393083">
									<True/>
									<Node score="0.0015812261116162902">
										<SimplePredicate field="EXT_SOURCE_2" operator="greaterThan" value="0.3939913839904538"/>
										<Node score="-1.0446429271162779E-4">
											<SimplePredicate field="EXT_SOURCE_3" operator="greaterThan" value="0.42501160459970394"/>
											<Node score="-0.011547123361750549">
												<SimplePredicate field="EXT_SOURCE_2" operator="greaterThan" value="0.589927440572748"/>
											</Node>
											<Node score="-0.008610630814988111">
												<SimplePredicate field="EXT_SOURCE_3" operator="greaterThan" value="0.5145945707321371"/>
											</Node>
										</Node>
										<Node score="0.0015717588097344298">
											<SimplePredicate field="EXT_SOURCE_2" operator="greaterThan" value="0.6023384558634172"/>
											<Node score="-0.0060685968548673625">
												<SimplePredicate field="CODE_GENDER=F" operator="greaterThan" value="1.0000000180025095E-35"/>
											</Node>
										</Node>
										<Node score="0.018446725757740562">
											<SimplePredicate field="EXT_SOURCE_3" operator="greaterThan" value="1.0000000180025095E-35"/>
											<Node score="0.003991677590928043">
												<SimplePredicate field="EXT_SOURCE_3" operator="greaterThan" value="0.2657531190947183"/>
											</Node>
										</Node>
									</Node>
									<Node score="0.004117626575725338">
										<SimplePredicate field="EXT_SOURCE_3" operator="greaterThan" value="0.3698091852914142"/>
										<Node score="0.008079257593717958">
											<SimplePredicate field="EXT_SOURCE_2" operator="greaterThan" value="0.135996090050464"/>
											<Node score="-0.00697382019360058">
												<SimplePredicate field="EXT_SOURCE_1" operator="greaterThan" value="0.399391085619572"/>
											</Node>
											<Node score="-0.0018046554377116016">
												<SimplePredicate field="EXT_SOURCE_3" operator="greaterThan" value="0.5717995232445786"/>
											</Node>
										</Node>
										<Node score="0.021478871904070225">
											<SimplePredicate field="NAME_INCOME_TYPE=Working" operator="greaterThan" value="1.0000000180025095E-35"/>
										</Node>
									</Node>
									<Node score="0.0040038702740125744">
										<SimplePredicate field="EXT_SOURCE_2" operator="greaterThan" value="0.1596836349474592"/>
										<Node score="0.013066029877982045">
											<SimplePredicate field="AMT_ANNUITY" operator="greaterThan" value="13911.750000000002"/>
											<Node score="0.03415402427802504">
												<SimplePredicate field="EXT_SOURCE_3" operator="greaterThan" value="1.0000000180025095E-35"/>
												<Node score="0.017092235579947598">
													<SimplePredicate field="EXT_SOURCE_3" operator="greaterThan" value="0.2295211567820439"/>
												</Node>
											</Node>
										</Node>
									</Node>
									<Node score="0.06476520704883691">
										<SimplePredicate field="EXT_SOURCE_3" operator="greaterThan" value="1.0000000180025095E-35"/>
										<Node score="0.029981181974673643">
											<SimplePredicate field="EXT_SOURCE_3" operator="greaterThan" value="0.20618839652044627"/>
										</Node>
									</Node>
								</Node>
							</TreeModel>
						</Segment>
						<Segment id="14">
							<True/>
							<TreeModel functionName="regression" missingValueStrategy="none" noTrueChildStrategy="returnLastPrediction" splitCharacteristic="multiSplit">
								<MiningSchema>
									<MiningField name="EXT_SOURCE_2"/>
									<MiningField name="DAYS_ID_PUBLISH"/>
									<MiningField name="DAYS_EMPLOYED"/>
									<MiningField name="FLAG_DOCUMENT_3"/>
									<MiningField name="LANDAREA_MODE"/>
									<MiningField name="OCCUPATION_TYPE"/>
									<MiningField name="CODE_GENDER"/>
									<MiningField name="NAME_EDUCATION_TYPE"/>
									<MiningField name="NAME_FAMILY_STATUS"/>
								</MiningSchema>
								<Node score="0.018005578124853712">
									<True/>
									<Node score="0.010677413770444866">
										<SimplePredicate field="EXT_SOURCE_2" operator="greaterThan" value="0.3939913839904538"/>
										<Node score="-0.0070580713788013835">
											<SimplePredicate field="EXT_SOURCE_2" operator="greaterThan" value="0.5915954110173216"/>
											<Node score="-0.009565118784002385">
												<SimplePredicate field="CODE_GENDER=F" operator="greaterThan" value="1.0000000180025095E-35"/>
											</Node>
											<Node score="-0.01117771646388463">
												<SimplePredicate field="EXT_SOURCE_2" operator="greaterThan" value="0.7229060973759734"/>
											</Node>
											<Node score="-0.0047528789156609345">
												<SimplePredicate field="FLAG_DOCUMENT_3" operator="greaterThan" value="1.0000000180025095E-35"/>
												<Node score="0.005149299407981841">
													<SimplePredicate field="DAYS_ID_PUBLISH" operator="greaterThan" value="-3248.4999999999995"/>
												</Node>
											</Node>
										</Node>
										<Node score="-6.577566156939644E-4">
											<SimplePredicate field="CODE_GENDER=F" operator="greaterThan" value="1.0000000180025095E-35"/>
											<Node score="-0.00752763709412544">
												<SimplePredicate field="LANDAREA_MODE" operator="greaterThan" value="0.038250000000000006"/>
											</Node>
										</Node>
										<Node score="0.0012222019499277482">
											<SimplePredicate field="NAME_FAMILY_STATUS=Married" operator="greaterThan" value="1.0000000180025095E-35"/>
										</Node>
									</Node>
									<Node score="0.0015466222032051611">
										<SimplePredicate field="EXT_SOURCE_2" operator="greaterThan" value="0.1269827431525459"/>
										<Node score="-4.945540090083897E-4">
											<SimplePredicate field="DAYS_EMPLOYED" operator="greaterThan" value="1.0000000180025095E-35"/>
										</Node>
										<Node score="0.024936933910002287">
											<SimplePredicate field="OCCUPATION_TYPE=Drivers" operator="greaterThan" value="1.0000000180025095E-35"/>
										</Node>
										<Node score="0.019502966364425046">
											<SimplePredicate field="DAYS_ID_PUBLISH" operator="greaterThan" value="-4282.499999999999"/>
											<Node score="0.010366972844930907">
												<SimplePredicate field="EXT_SOURCE_2" operator="greaterThan" value="0.2521037439872545"/>
												<Node score="-0.0024500074987178107">
													<SimplePredicate field="NAME_EDUCATION_TYPE=Higher education" operator="greaterThan" value="1.0000000180025095E-35"/>
												</Node>
											</Node>
											<Node score="0.004456470787139535">
												<SimplePredicate field="LANDAREA_MODE" operator="greaterThan" value="0.03735000000000001"/>
											</Node>
										</Node>
									</Node>
									<Node score="0.04393869054890137">
										<SimplePredicate field="DAYS_ID_PUBLISH" operator="greaterThan" value="-1351.4999999999998"/>
									</Node>
									<Node score="0.013450435329235847">
										<SimplePredicate field="DAYS_EMPLOYED" operator="greaterThan" value="-369.49999999999994"/>
									</Node>
									<Node score="0.03973112793881759">
										<SimplePredicate field="DAYS_EMPLOYED" operator="greaterThan" value="-1374.4999999999998"/>
									</Node>
								</Node>
							</TreeModel>
						</Segment>
						<Segment id="15">
							<True/>
							<TreeModel functionName="regression" missingValueStrategy="none" noTrueChildStrategy="returnLastPrediction" splitCharacteristic="multiSplit">
								<MiningSchema>
									<MiningField name="DAYS_REGISTRATION"/>
									<MiningField name="DAYS_LAST_PHONE_CHANGE"/>
									<MiningField name="OWN_CAR_AGE"/>
									<MiningField name="REGION_POPULATION_RELATIVE"/>
									<MiningField name="YEARS_BEGINEXPLUATATION_AVG"/>
									<MiningField name="FLAG_DOCUMENT_3"/>
									<MiningField name="LANDAREA_MODE"/>
									<MiningField name="AMT_REQ_CREDIT_BUREAU_QRT"/>
									<MiningField name="ORGANIZATION_TYPE"/>
									<MiningField name="CODE_GENDER"/>
									<MiningField name="NAME_EDUCATION_TYPE"/>
									<MiningField name="NAME_INCOME_TYPE"/>
								</MiningSchema>
								<Node score="-4.479461807269983E-4">
									<True/>
									<Node score="-0.004022202656643854">
										<SimplePredicate field="CODE_GENDER=F" operator="greaterThan" value="1.0000000180025095E-35"/>
										<Node score="-0.0019460324547475303">
											<SimplePredicate field="DAYS_LAST_PHONE_CHANGE" operator="greaterThan" value="-826.4999999999999"/>
											<Node score="-0.008760307655197605">
												<SimplePredicate field="YEARS_BEGINEXPLUATATION_AVG" operator="greaterThan" value="0.9565500000000001"/>
												<Node score="4.5552683414075234E-4">
													<SimplePredicate field="DAYS_REGISTRATION" operator="greaterThan" value="-9167.499999999998"/>
													<Node score="-0.006140787765858499">
														<SimplePredicate field="NAME_EDUCATION_TYPE=Higher education" operator="greaterThan" value="1.0000000180025095E-35"/>
													</Node>
												</Node>
											</Node>
											<Node score="0.0108393326171429">
												<SimplePredicate field="FLAG_DOCUMENT_3" operator="greaterThan" value="1.0000000180025095E-35"/>
												<Node score="0.011497145209976203">
													<SimplePredicate field="REGION_POPULATION_RELATIVE" operator="greaterThan" value="0.009020500000000002"/>
													<Node score="0.0034121394430440956">
														<SimplePredicate field="AMT_REQ_CREDIT_BUREAU_QRT" operator="greaterThan" value="-1.0000000180025095E-35"/>
														<Node score="-0.00766610772493484">
															<SimplePredicate field="NAME_INCOME_TYPE=Pensioner" operator="greaterThan" value="1.0000000180025095E-35"/>
														</Node>
													</Node>
												</Node>
											</Node>
										</Node>
										<Node score="0.0077127285801631374">
											<SimplePredicate field="ORGANIZATION_TYPE=Trade: type 7" operator="greaterThan" value="1.0000000180025095E-35"/>
										</Node>
										<Node score="-0.008439284528940535">
											<SimplePredicate field="LANDAREA_MODE" operator="greaterThan" value="0.02145"/>
										</Node>
									</Node>
									<Node score="-0.003259383584427759">
										<SimplePredicate field="NAME_EDUCATION_TYPE=Higher education" operator="greaterThan" value="1.0000000180025095E-35"/>
									</Node>
									<Node score="0.012489775104833357">
										<SimplePredicate field="DAYS_LAST_PHONE_CHANGE" operator="greaterThan" value="-1514.4999999999998"/>
										<Node score="0.017917161237752294">
											<SimplePredicate field="FLAG_DOCUMENT_3" operator="greaterThan" value="1.0000000180025095E-35"/>
											<Node score="0.003684347194462494">
												<SimplePredicate field="YEARS_BEGINEXPLUATATION_AVG" operator="greaterThan" value="0.9813500000000001"/>
											</Node>
											<Node score="0.00187753311806275">
												<SimplePredicate field="OWN_CAR_AGE" operator="greaterThan" value="-1.0000000180025095E-35"/>
												<Node score="0.0025513175838031677">
													<SimplePredicate field="DAYS_LAST_PHONE_CHANGE" operator="greaterThan" value="-271.49999999999994"/>
												</Node>
												<Node score="0.016752664718378392">
													<SimplePredicate field="DAYS_REGISTRATION" operator="greaterThan" value="-6556.499999999999"/>
												</Node>
											</Node>
										</Node>
										<Node score="9.472734042366185E-5">
											<SimplePredicate field="REGION_POPULATION_RELATIVE" operator="greaterThan" value="0.0085245"/>
										</Node>
									</Node>
								</Node>
							</TreeModel>
						</Segment>
						<Segment id="16">
							<True/>
							<TreeModel functionName="regression" missingValueStrategy="none" noTrueChildStrategy="returnLastPrediction" splitCharacteristic="multiSplit">
								<MiningSchema>
									<MiningField name="EXT_SOURCE_2"/>
									<MiningField name="DAYS_ID_PUBLISH"/>
									<MiningField name="DAYS_BIRTH"/>
									<MiningField name="DAYS_EMPLOYED"/>
									<MiningField name="LIVINGAREA_MODE"/>
									<MiningField name="ORGANIZATION_TYPE"/>
									<MiningField name="NAME_EDUCATION_TYPE"/>
									<MiningField name="NAME_INCOME_TYPE"/>
								</MiningSchema>
								<Node score="0.009720767768152295">
									<True/>
									<Node score="-0.004287362569198574">
										<SimplePredicate field="EXT_SOURCE_2" operator="greaterThan" value="0.35654666266300045"/>
										<Node score="-0.008945311320900406">
											<SimplePredicate field="EXT_SOURCE_2" operator="greaterThan" value="0.6237839998920278"/>
											<Node score="-0.011983759665722862">
												<SimplePredicate field="EXT_SOURCE_2" operator="greaterThan" value="0.716029944837897"/>
											</Node>
											<Node score="-0.008796565572175894">
												<SimplePredicate field="DAYS_BIRTH" operator="greaterThan" value="-14356.499999999998"/>
												<Node score="-0.00467982267597644">
													<SimplePredicate field="NAME_EDUCATION_TYPE=Secondary / secondary special" operator="greaterThan" value="1.0000000180025095E-35"/>
													<Node score="0.005912093711476147">
														<SimplePredicate field="DAYS_EMPLOYED" operator="greaterThan" value="-1193.4999999999998"/>
													</Node>
												</Node>
											</Node>
										</Node>
										<Node score="-0.005594478927591833">
											<SimplePredicate field="DAYS_BIRTH" operator="greaterThan" value="-16777.499999999996"/>
											<Node score="8.011188873666859E-4">
												<SimplePredicate field="DAYS_EMPLOYED" operator="greaterThan" value="-1193.4999999999998"/>
												<Node score="0.008063297984317515">
													<SimplePredicate field="NAME_EDUCATION_TYPE=Secondary / secondary special" operator="greaterThan" value="1.0000000180025095E-35"/>
												</Node>
											</Node>
											<Node score="6.483962314894694E-4">
												<SimplePredicate field="NAME_INCOME_TYPE=Working" operator="greaterThan" value="1.0000000180025095E-35"/>
											</Node>
										</Node>
									</Node>
									<Node score="0.001532441578718769">
										<SimplePredicate field="EXT_SOURCE_2" operator="greaterThan" value="0.1596836349474592"/>
										<Node score="0.011802149307688437">
											<SimplePredicate field="DAYS_ID_PUBLISH" operator="greaterThan" value="-4045.4999999999995"/>
											<Node score="-4.407600790388591E-4">
												<SimplePredicate field="DAYS_EMPLOYED" operator="greaterThan" value="-89.49999999999999"/>
											</Node>
											<Node score="-0.0017049382132472948">
												<SimplePredicate field="LIVINGAREA_MODE" operator="greaterThan" value="0.11765000000000002"/>
											</Node>
											<Node score="0.030959791749250665">
												<SimplePredicate field="ORGANIZATION_TYPE=Business Entity Type 3" operator="greaterThan" value="1.0000000180025095E-35"/>
												<Node score="0.013922807554531498">
													<SimplePredicate field="EXT_SOURCE_2" operator="greaterThan" value="0.25640127316901323"/>
												</Node>
											</Node>
										</Node>
									</Node>
									<Node score="0.02652655075723914">
										<SimplePredicate field="NAME_INCOME_TYPE=Working" operator="greaterThan" value="1.0000000180025095E-35"/>
										<Node score="0.04636431311561452">
											<SimplePredicate field="DAYS_ID_PUBLISH" operator="greaterThan" value="-1125.4999999999998"/>
										</Node>
									</Node>
									<Node score="0.02462094624946742">
										<SimplePredicate field="DAYS_BIRTH" operator="greaterThan" value="-14263.499999999998"/>
									</Node>
								</Node>
							</TreeModel>
						</Segment>
						<Segment id="17">
							<True/>
							<TreeModel functionName="regression" missingValueStrategy="none" noTrueChildStrategy="returnLastPrediction" splitCharacteristic="multiSplit">
								<MiningSchema>
									<MiningField name="EXT_SOURCE_3"/>
									<MiningField name="EXT_SOURCE_1"/>
									<MiningField name="DAYS_ID_PUBLISH"/>
									<MiningField name="DAYS_REGISTRATION"/>
									<MiningField name="DAYS_EMPLOYED"/>
									<MiningField name="DAYS_LAST_PHONE_CHANGE"/>
									<MiningField name="OWN_CAR_AGE"/>
									<MiningField name="REGION_RATING_CLIENT_W_CITY"/>
									<MiningField name="AMT_REQ_CREDIT_BUREAU_QRT"/>
									<MiningField name="CODE_GENDER"/>
									<MiningField name="NAME_INCOME_TYPE"/>
								</MiningSchema>
								<Node score="-7.613083583928216E-4">
									<True/>
									<Node score="-0.004814739499635576">
										<SimplePredicate field="EXT_SOURCE_3" operator="greaterThan" value="0.42501160459970394"/>
										<Node score="-0.010218409293524237">
											<SimplePredicate field="EXT_SOURCE_3" operator="greaterThan" value="0.6471533790182341"/>
										</Node>
										<Node score="-0.006676391563367339">
											<SimplePredicate field="CODE_GENDER=F" operator="greaterThan" value="1.0000000180025095E-35"/>
										</Node>
										<Node score="-0.0038014291891508363">
											<SimplePredicate field="OWN_CAR_AGE" operator="greaterThan" value="-1.0000000180025095E-35"/>
										</Node>
										<Node score="0.008881463089806948">
											<SimplePredicate field="DAYS_ID_PUBLISH" operator="greaterThan" value="-4198.499999999999"/>
										</Node>
									</Node>
									<Node score="0.0012098177858814">
										<SimplePredicate field="EXT_SOURCE_1" operator="greaterThan" value="0.42546846224235746"/>
										<Node score="-0.006889166635131573">
											<SimplePredicate field="EXT_SOURCE_1" operator="greaterThan" value="0.6502671066932053"/>
										</Node>
									</Node>
									<Node score="0.005504660821288423">
										<SimplePredicate field="EXT_SOURCE_3" operator="greaterThan" value="1.0000000180025095E-35"/>
										<Node score="-0.0029472594453620474">
											<SimplePredicate field="EXT_SOURCE_3" operator="greaterThan" value="0.224459089793268"/>
											<Node score="0.011754525558034815">
												<SimplePredicate field="NAME_INCOME_TYPE=Working" operator="greaterThan" value="1.0000000180025095E-35"/>
											</Node>
											<Node score="0.007437282434461882">
												<SimplePredicate field="DAYS_EMPLOYED" operator="greaterThan" value="-1476.4999999999998"/>
											</Node>
										</Node>
										<Node score="0.03799659596262449">
											<SimplePredicate field="DAYS_LAST_PHONE_CHANGE" operator="greaterThan" value="-919.4999999999999"/>
											<Node score="0.012956969082502386">
												<SimplePredicate field="EXT_SOURCE_3" operator="greaterThan" value="0.15147104206873865"/>
												<Node score="0.029849675053451062">
													<SimplePredicate field="NAME_INCOME_TYPE=Working" operator="greaterThan" value="1.0000000180025095E-35"/>
												</Node>
											</Node>
										</Node>
										<Node score="0.024212981264390646">
											<SimplePredicate field="DAYS_REGISTRATION" operator="greaterThan" value="-5134.499999999999"/>
										</Node>
									</Node>
									<Node score="0.0018817176537282143">
										<SimplePredicate field="DAYS_REGISTRATION" operator="greaterThan" value="-4703.499999999999"/>
										<Node score="0.018148002812644077">
											<SimplePredicate field="REGION_RATING_CLIENT_W_CITY" operator="greaterThan" value="2.5000000000000004"/>
										</Node>
										<Node score="-0.003911721799117567">
											<SimplePredicate field="AMT_REQ_CREDIT_BUREAU_QRT" operator="greaterThan" value="-1.0000000180025095E-35"/>
										</Node>
										<Node score="0.012989726913647647">
											<SimplePredicate field="NAME_INCOME_TYPE=Working" operator="greaterThan" value="1.0000000180025095E-35"/>
										</Node>
									</Node>
								</Node>
							</TreeModel>
						</Segment>
						<Segment id="18">
							<True/>
							<TreeModel functionName="regression" missingValueStrategy="none" noTrueChildStrategy="returnLastPrediction" splitCharacteristic="multiSplit">
								<MiningSchema>
									<MiningField name="EXT_SOURCE_2"/>
									<MiningField name="DAYS_LAST_PHONE_CHANGE"/>
									<MiningField name="AMT_INCOME_TOTAL"/>
									<MiningField name="NONLIVINGAREA_AVG"/>
									<MiningField name="FLAG_DOCUMENT_3"/>
									<MiningField name="APARTMENTS_MODE"/>
									<MiningField name="OCCUPATION_TYPE"/>
									<MiningField name="NAME_INCOME_TYPE"/>
								</MiningSchema>
								<Node score="0.016143452804303068">
									<True/>
									<Node score="-0.005032090430682566">
										<SimplePredicate field="EXT_SOURCE_2" operator="greaterThan" value="0.35654666266300045"/>
										<Node score="-0.007034187272976346">
											<SimplePredicate field="EXT_SOURCE_2" operator="greaterThan" value="0.6237839998920278"/>
											<Node score="-0.011884821034674012">
												<SimplePredicate field="EXT_SOURCE_2" operator="greaterThan" value="0.716029944837897"/>
											</Node>
										</Node>
										<Node score="-5.940238154024582E-4">
											<SimplePredicate field="DAYS_LAST_PHONE_CHANGE" operator="greaterThan" value="-1560.4999999999998"/>
											<Node score="-0.0034488232092453443">
												<SimplePredicate field="OCCUPATION_TYPE=Blank" operator="greaterThan" value="1.0000000180025095E-35"/>
											</Node>
											<Node score="-0.0021962530671701943">
												<SimplePredicate field="NONLIVINGAREA_AVG" operator="greaterThan" value="0.00205"/>
											</Node>
											<Node score="0.005085896335544219">
												<SimplePredicate field="FLAG_DOCUMENT_3" operator="greaterThan" value="1.0000000180025095E-35"/>
											</Node>
										</Node>
									</Node>
									<Node score="0.012407703702898678">
										<SimplePredicate field="EXT_SOURCE_2" operator="greaterThan" value="0.1596836349474592"/>
										<Node score="-0.008579130621958699">
											<SimplePredicate field="NAME_INCOME_TYPE=Pensioner" operator="greaterThan" value="1.0000000180025095E-35"/>
											<Node score="0.005137342725981945">
												<SimplePredicate field="AMT_INCOME_TOTAL" operator="greaterThan" value="103614.75000000001"/>
											</Node>
										</Node>
										<Node score="-0.00658251445131085">
											<SimplePredicate field="APARTMENTS_MODE" operator="greaterThan" value="0.17280000000000004"/>
										</Node>
										<Node score="0.008455476904621161">
											<SimplePredicate field="EXT_SOURCE_2" operator="greaterThan" value="0.2521037439872545"/>
										</Node>
										<Node score="0.0029389347967714945">
											<SimplePredicate field="AMT_INCOME_TOTAL" operator="greaterThan" value="188775.00000000003"/>
										</Node>
										<Node score="0.02373843420695788">
											<SimplePredicate field="DAYS_LAST_PHONE_CHANGE" operator="greaterThan" value="-468.49999999999994"/>
										</Node>
									</Node>
									<Node score="0.02043284998522582">
										<SimplePredicate field="OCCUPATION_TYPE=Blank" operator="greaterThan" value="1.0000000180025095E-35"/>
										<Node score="0.005843010421954994">
											<SimplePredicate field="EXT_SOURCE_2" operator="greaterThan" value="0.08717160970798508"/>
										</Node>
									</Node>
									<Node score="0.037255728274359745">
										<SimplePredicate field="FLAG_DOCUMENT_3" operator="greaterThan" value="1.0000000180025095E-35"/>
										<Node score="0.03175212163465976">
											<SimplePredicate field="EXT_SOURCE_2" operator="greaterThan" value="0.06760393993753604"/>
											<Node score="0.017147527327725974">
												<SimplePredicate field="DAYS_LAST_PHONE_CHANGE" operator="greaterThan" value="-297.49999999999994"/>
											</Node>
										</Node>
									</Node>
								</Node>
							</TreeModel>
						</Segment>
						<Segment id="19">
							<True/>
							<TreeModel functionName="regression" missingValueStrategy="none" noTrueChildStrategy="returnLastPrediction" splitCharacteristic="multiSplit">
								<MiningSchema>
									<MiningField name="EXT_SOURCE_2"/>
									<MiningField name="AMT_CREDIT"/>
									<MiningField name="DAYS_ID_PUBLISH"/>
									<MiningField name="DAYS_BIRTH"/>
									<MiningField name="DAYS_REGISTRATION"/>
									<MiningField name="DAYS_LAST_PHONE_CHANGE"/>
									<MiningField name="FLAG_DOCUMENT_3"/>
									<MiningField name="OCCUPATION_TYPE"/>
									<MiningField name="CODE_GENDER"/>
									<MiningField name="NAME_EDUCATION_TYPE"/>
									<MiningField name="NAME_INCOME_TYPE"/>
								</MiningSchema>
								<Node score="0.009071865076482248">
									<True/>
									<Node score="-0.004179665566781267">
										<SimplePredicate field="EXT_SOURCE_2" operator="greaterThan" value="0.35654666266300045"/>
										<Node score="-0.008828685453388762">
											<SimplePredicate field="EXT_SOURCE_2" operator="greaterThan" value="0.6237839998920278"/>
											<Node score="-0.0118046441500776">
												<SimplePredicate field="EXT_SOURCE_2" operator="greaterThan" value="0.716029944837897"/>
											</Node>
